tree
version=v4
num_class=1
num_tree_per_iteration=1
label_index=0
max_feature_idx=4
objective=regression
feature_names=prefix_len time_since_start_min full_trace_len current_event_id prefix_events_str
feature_infos=[1:59] [0:13569137] [2:60] -1:3:10:0:1:2:4:5:9:6:7 -1:79:201:216:3334:1916:4035:6076:309:310:2284:1174:5118:3380:3381:8016:4261:6504:1432:756:1917:3655:1935:2099:4710:8268:5489:1530:6676:311:312:3042:4344:2530:2719:831:8396:8397:3466:6254:3741:3241:567:1269:4821:2367:2368:2737:2738:2009:2010:4057:4058:5326:5640:6077:7034:7035:426:5904:5905:3534:4540:6806:6807:7368:7369:2973:2974:1344:5119:8017:1607:2884:7612:7613:8671:8672:6125:7812:1433:4375:4749:5152:7069:8523:1155:1437:1728:1729:7527:8061:8398:8933:217:671:2578:2626:2627:3043:3382:3383:5715:5716:5796:5797:313:314:757:913:1091:1092:3303:3656:6505:6726:8269:8418:765:1016:1017:1469:1531:1918:1919:1920:2125:2446:2447:2829:3084:3110:3164:3165:3663:3890:3891:4190:4861:4976:4977:5046:5047:8171:8673:248:1361:1936:1937:2264:2285:2286:3248:3249:3798:4114:5490:5906:6564:6808:455:1209:1210:1666:1667:1882:1953:1978:2100:2633:2758:3429:3698:4383:4590:5498:5931:6078:6079:6080:6131:6132:6255:7019:7370:7397:7541:7680:8286:8338:8524:8837:8838:8934:8935:39:80:289:336:367:607:779:780:791:1287:1362:1853:1854:2134:2212:2213:2502:2584:2896:3019:3262:3335:3597:3966:3967:4129:4474:4562:4691:4692:4693:4895:4896:5259:5260:5438:5439:5765:5849:5915:6266:6632:6633:6677:6753:6754:7127:7217:7375:7415:7632:8448:8693:8764:8781:342:484:549:714:715:859:860:914:915:1041:1532:1533:1534:1583:1725:2011:2012:2106:2129:2478:2479:2706:2727:2768:2859:2918:2922:3010:3283:3467:3468:3914:4012:4059:4060:4275:4276:4425:4750:4786:4996:5048:5267:5327:5370:5534:5535:5589:5590:5686:5983:6133:6360:6434:6833:6891:6938:7036:7102:7382:7464:7921:8018:8694:8695:8839:8840:8940:0:1:2:48:81:82:83:84:218:219:220:315:316:395:672:673:1042:1145:1156:1175:1211:1212:1250:1288:1347:1388:1389:1445:1446:1506:1507:1547:1548:1631:1632:1633:1668:1694:1730:1747:1775:2030:2077:2293:2296:2297:2426:2427:2428:2624:2634:2642:2643:2670:2835:2975:3011:3095:3096:3195:3224:3304:3305:3306:3354:3491:3519:3535:3552:3640:3641:3742:3743:3768:3769:3799:3930:4080:4426:4475:4476:4477:4571:4603:4754:4773:4822:5092:5120:5121:5122:5340:5462:5609:5610:5641:5642:5643:5644:5717:5718:5719:5720:5766:5798:5850:5944:5945:5984:6010:6143:6206:6319:6435:6436:6592:6593:6643:6644:6699:6800:6809:6810:6811:6844:7070:7178:7237:7465:7633:7721:7813:7814:7853:8023:8024:8062:8172:8239:8240:8270:8449:8450:8525:8526:8527:8537:8607:8674:8739:8813:8969
tree_sizes=2734 3507 3304 3013 3039 3310 2776 3279 3026 3560 3298 3032 3184 2759 2761 3209 3294 3295 2772 3872 3818 2764 2771 2768 3227 2751 2768 3929 3247 2770 2929 3206 3448 3956 2772 3432 3188

Tree=0
num_leaves=31
num_cat=5
split_feature=1 1 3 1 2 3 2 1 2 3 1 2 0 2 1 2 1 2 0 2 2 1 1 3 2 0 0 2 0 3
split_gain=3.83673e+09 2.61818e+09 1.24499e+09 7.21427e+08 7.74959e+08 5.53119e+08 5.95171e+08 5.02649e+08 3.14721e+08 3.06236e+08 2.8177e+08 1.85962e+08 2.43416e+08 1.79175e+08 1.71976e+08 1.46282e+08 1.3285e+08 1.21223e+08 1.05331e+08 9.56756e+07 9.08155e+07 9.02064e+07 8.27987e+07 8.22491e+07 7.90654e+07 1.3074e+08 7.54787e+07 8.29159e+07 6.80312e+07 6.12461e+07
threshold=47938.30000000001 2139.791666666667 0 5816.0000000000009 23.500000000000004 1 9.5000000000000018 300.14166666666671 13.500000000000002 2 597.50000000000011 14.500000000000002 17.500000000000004 14.500000000000002 1500.5000000000002 5.5000000000000009 13188.525000000001 19.500000000000004 4.5000000000000009 48.500000000000007 28.500000000000004 7836.1416666666673 9057.0000000000018 3 7.5000000000000009 6.5000000000000009 8.5000000000000018 11.500000000000002 11.500000000000002 4
decision_type=2 2 9 2 2 9 2 2 2 9 2 2 2 2 2 2 2 2 2 2 2 2 2 9 2 2 2 2 2 9
left_child=1 5 3 8 11 -1 7 29 -3 -4 -8 22 -13 26 15 -9 20 -11 -17 -18 21 -6 -5 -10 -20 -26 -12 -28 -29 -7
right_child=-2 2 9 4 16 6 10 14 23 17 13 12 -14 -15 -16 18 19 -19 24 -21 -22 -23 -24 -25 25 -27 27 28 -30 -31
leaf_value=572.13157361649553 1077.804934024269 704.60821490637113 571.84101947365889 786.9347037582429 638.33145158955722 587.01188255894556 580.6604115593077 723.37057811660168 664.46753434381583 654.56275705234771 607.27699868428761 705.05465821788391 826.19011606179276 595.36369810187023 776.45485565039701 604.77531980570336 718.81183617801071 608.89097830544608 698.71671575056121 630.87780651302512 628.52912978466281 731.56632020618508 907.5755478581051 620.37563369042778 602.55625783604978 688.46815210279397 684.21401831285095 610.73268782951129 673.31416755580517 621.76188044939522
leaf_weight=3719 41 156 511 41 53 380 3481 74 122 208 263 129 63 1960 33 108 149 478 99 40 215 52 31 744 95 82 89 166 58 177
leaf_count=3719 41 156 511 41 53 380 3481 74 122 208 263 129 63 1960 33 108 149 478 99 40 215 52 31 744 95 82 89 166 58 177
internal_value=600.644 599.19 640.564 666.708 703.501 587.708 595.959 630.707 639.446 600.795 589.894 772.917 745.762 602.571 667.533 659.321 667.231 622.488 646.693 700.455 647.36 685.299 842.362 627.602 663.023 642.624 627.061 643.613 627.185 598.183
internal_weight=13817 13776 2992 1795 773 10784 7065 1048 1022 1197 6017 264 192 2536 491 458 509 686 384 189 320 105 72 866 276 177 576 313 224 557
internal_count=13817 13776 2992 1795 773 10784 7065 1048 1022 1197 6017 264 192 2536 491 458 509 686 384 189 320 105 72 866 276 177 576 313 224 557
cat_boundaries=0 1 2 3 4 5
cat_threshold=138 533 5 128 8
is_linear=0
shrinkage=1


Tree=1
num_leaves=31
num_cat=6
split_feature=1 1 3 2 1 2 3 2 4 3 1 2 0 1 2 1 2 2 1 3 2 1 0 2 0 2 1 0 0 4
split_gain=5.74441e+09 2.22412e+09 1.23397e+09 8.80058e+08 5.94925e+08 4.39433e+08 3.95084e+08 5.59574e+08 3.3395e+08 2.97025e+08 2.71587e+08 1.76133e+08 1.883e+08 1.66728e+08 1.54091e+08 1.24303e+08 1.06303e+08 1.0581e+08 9.8786e+07 9.87698e+07 9.78833e+07 9.50541e+07 8.49545e+07 7.91362e+07 7.81261e+07 6.27347e+07 6.06587e+07 5.88288e+07 5.60101e+07 5.20608e+07
threshold=47938.30000000001 1606.0000000000002 0 11.500000000000002 5816.0000000000009 24.500000000000004 1 9.5000000000000018 2 3 6012.6833333333343 5.5000000000000009 5.5000000000000009 554.50000000000011 9.5000000000000018 15369.000000000002 11.500000000000002 15.500000000000002 21642.150000000005 4 30.500000000000004 7438.5000000000009 17.500000000000004 8.5000000000000018 8.5000000000000018 15.500000000000002 3342.5000000000005 7.5000000000000009 30.500000000000004 5
decision_type=2 2 9 2 2 2 9 2 9 9 2 2 2 2 2 2 2 2 2 9 2 2 2 2 2 2 2 2 2 9
left_child=1 6 3 10 19 15 -1 8 -8 -4 14 -10 29 -9 -3 22 24 -11 20 -5 21 -7 -6 -14 -15 26 -21 -25 -22 -13
right_child=-2 2 9 4 5 18 7 13 11 17 -12 12 23 16 -16 -17 -18 -19 -20 25 28 -23 -24 27 -26 -27 -28 -29 -30 -31
leaf_value=-27.588178587318865 583.31037851515271 174.62712980317482 -28.123414280103603 57.511997501460876 91.32402034286531 23.180135532370155 -13.99351216872083 -20.185940266412647 105.80439506802605 59.643080016433217 283.23449287414553 -3.5848193914404414 105.19474092558319 9.8178021526336678 66.644916508992523 207.20080239807186 -6.0695773218449514 9.3021901428760909 110.71040305539088 25.058783704042437 7.1693014301505746 107.65871892670792 162.74172441786615 20.585014405882504 74.987657961638078 12.842426489977706 95.430231857299816 97.621731932957971 52.81494139309757 33.173771712374183
leaf_weight=3575 41 80 656 185 123 52 342 3394 106 121 37 200 101 139 59 51 2004 727 67 91 152 95 68 82 68 855 46 35 120 177
leaf_count=3575 41 80 656 185 123 52 342 3394 106 121 37 200 101 139 59 51 2004 727 67 91 152 95 68 82 68 855 46 35 120 177
internal_value=-0.549446 -2.32521 31.5561 56.3432 46.6755 82.1775 -14.2086 -6.95866 26.6422 -3.10882 163.313 46.003 35.9615 -13.2273 129.596 137.151 -2.54108 16.3544 54.5782 24.6656 45.3602 78.1337 117.465 72.8438 31.4838 17.7306 49.2075 44.2622 27.4268 14.4981
internal_weight=13849 13808 3585 2081 1905 728 10223 6648 1043 1504 176 701 595 5605 139 242 2211 848 486 1177 419 147 191 218 207 992 137 117 272 377
internal_count=13849 13808 3585 2081 1905 728 10223 6648 1043 1504 176 701 595 5605 139 242 2211 848 486 1177 419 147 191 218 207 992 137 117 272 377
cat_boundaries=0 1 2 108 109 110 361
cat_threshold=138 533 0 0 0 0 0 0 16777216 0 0 0 0 0 0 0 0 0 0 0 0 0 0 0 0 0 0 0 0 0 0 0 0 0 0 0 0 0 0 0 0 0 0 0 0 0 0 0 0 0 0 0 0 0 0 0 0 0 0 0 0 0 0 0 0 0 0 0 0 0 0 0 0 0 0 0 0 0 0 0 0 0 0 0 0 0 0 0 0 0 0 0 0 0 0 0 0 0 0 0 0 0 0 0 0 0 64 2097152 5 128 0 0 0 0 0 0 0 0 0 4194304 0 0 0 0 0 0 0 0 0 0 0 0 0 0 0 0 0 0 0 0 0 0 0 0 0 0 4194304 0 0 0 0 0 0 0 0 0 0 0 0 0 0 0 0 0 0 0 0 0 0 268435456 0 0 0 0 0 0 0 0 0 0 0 0 0 0 0 0 0 0 0 0 0 0 0 0 0 0 0 0 0 0 0 0 0 0 0 0 0 0 0 0 0 0 0 0 0 0 0 0 0 0 0 0 0 0 0 0 0 0 0 0 0 0 0 0 0 0 8 0 0 0 0 0 0 0 0 0 0 0 0 0 0 0 0 0 0 0 0 0 0 0 0 0 0 0 0 0 0 0 0 0 0 0 0 0 0 0 0 0 0 0 0 0 0 0 0 0 0 0 0 0 0 0 0 0 0 0 0 0 0 268435456 0 0 0 0 0 0 0 0 0 0 0 0 0 0 0 0 0 0 0 0 0 0 0 0 0 0 0 0 0 0 0 0 0 0 0 0 0 0 0 0 0 0 0 0 0 0 0 0 0 0 0 0 0 0 0 0 0 0 0 0 65536
is_linear=0
shrinkage=0.05


Tree=2
num_leaves=31
num_cat=5
split_feature=1 1 3 2 1 3 2 4 1 2 3 1 1 2 2 2 2 1 1 0 1 2 0 2 3 0 1 1 0 1
split_gain=4.57341e+09 2.26089e+09 1.09368e+09 7.59643e+08 6.12595e+08 4.84544e+08 6.48262e+08 5.61122e+08 4.05883e+08 2.99587e+08 2.64928e+08 2.3805e+08 1.87717e+08 2.70042e+08 1.34137e+08 1.22405e+08 1.04706e+08 1.61456e+08 8.46696e+07 8.06114e+07 7.22441e+07 6.68259e+07 6.26573e+07 1.809e+08 5.21331e+07 4.41562e+07 4.05698e+07 4.04357e+07 3.94217e+07 3.90168e+07
threshold=47938.30000000001 2139.791666666667 0 14.500000000000002 9057.0000000000018 1 9.5000000000000018 2 7438.5000000000009 30.500000000000004 3 888.50000000000011 1056.5000000000002 5.5000000000000009 13.500000000000002 14.500000000000002 21.500000000000004 5356.8500000000013 5222.0000000000009 33.500000000000007 15369.000000000002 8.5000000000000018 16.500000000000004 23.500000000000004 4 25.500000000000004 1580.5000000000002 246.15000000000003 11.500000000000002 8455.0000000000018
decision_type=2 2 9 2 2 9 2 9 2 2 9 2 2 2 2 2 2 2 2 2 2 2 2 2 9 2 2 2 2 2
left_child=1 5 3 4 18 -1 7 -7 16 20 -4 27 13 -9 -12 28 17 -5 21 -11 22 -3 -10 -24 -17 -25 -14 -8 -13 -16
right_child=-2 2 10 8 -6 6 11 12 9 19 14 15 26 -15 29 24 -18 -19 -20 -21 -22 -23 23 25 -26 -27 -28 -29 -30 -31
leaf_value=-26.216908078053791 498.35787484334861 145.45405245357091 -26.620577674101344 35.583580297196193 336.04455474581039 -10.874388920373105 -21.648090328331143 137.77617781355576 61.947125109263837 25.194785483057988 90.562776082561868 23.34928310092338 99.666306655708411 34.356099954653871 6.7676613884517955 28.423632888830912 16.382162319978729 123.66413819097704 165.72746740270543 82.354229447214237 161.42903262565011 73.068529435150495 205.11967825412751 55.247427307613322 -4.8704411964693577 126.72937392658658 169.96095294952394 -11.887805484345085 70.35969088627742 35.883503967285158
leaf_weight=3739 45 44 518 335 34 459 2167 73 69 180 61 333 86 439 497 118 609 61 53 94 75 130 44 62 1326 35 31 2089 51 149
leaf_count=3739 45 44 518 335 34 459 2167 73 69 180 61 333 86 439 497 118 609 61 53 94 75 130 44 62 1326 35 31 2089 51 149
internal_value=0.624523 -1.01538 37.0344 61.3871 140.566 -11.654 -4.01719 31.5068 48.4846 82.6108 0.230928 -10.3807 61.5966 49.3414 20.0107 4.70871 29.4397 49.4289 109.942 45.0324 118.455 92.0995 102.415 121.642 -1.96895 82.0699 119.574 -16.8613 29.7594 13.5283
internal_weight=14006 13961 3050 1825 261 10911 7172 1088 1564 559 1225 6084 629 512 707 1828 1005 396 227 274 285 174 210 141 1444 97 117 4256 384 646
internal_count=14006 13961 3050 1825 261 10911 7172 1088 1564 559 1225 6084 629 512 707 1828 1005 396 227 274 285 174 210 141 1444 97 117 4256 384 646
cat_boundaries=0 1 2 253 254 255
cat_threshold=138 533 0 0 0 0 0 0 16777216 0 0 4194304 0 0 0 0 0 0 0 0 0 0 0 0 0 0 0 0 0 0 0 0 0 0 0 0 0 0 4194304 0 0 0 0 0 0 0 0 0 0 0 0 0 0 0 0 0 0 0 0 0 0 0 0 0 0 0 0 0 0 0 0 0 0 0 0 0 0 0 0 0 0 0 0 0 0 0 0 0 0 0 0 0 0 0 0 0 0 0 0 0 0 0 0 0 0 0 64 2097152 0 0 0 0 0 0 0 0 0 0 0 0 0 0 0 0 0 0 0 0 8 0 0 0 0 0 0 0 0 0 0 0 0 0 0 0 0 0 0 0 0 0 0 0 0 0 0 0 0 0 0 0 0 0 0 0 0 0 0 0 0 0 0 0 0 0 0 0 0 0 0 0 0 0 0 0 0 0 0 0 0 0 0 268435456 0 0 0 0 0 0 0 0 0 0 0 0 0 256 0 0 0 0 0 0 0 0 0 0 0 0 0 0 0 0 0 0 0 0 0 0 0 0 0 0 0 0 0 0 0 0 0 0 0 0 0 0 0 0 0 0 0 0 0 0 65536 5 224
is_linear=0
shrinkage=0.05


Tree=3
num_leaves=31
num_cat=4
split_feature=1 1 3 2 1 1 4 2 3 2 2 1 1 2 3 2 1 2 0 1 0 1 1 1 1 1 1 2 0 0
split_gain=3.47457e+09 1.8611e+09 1.01851e+09 8.59988e+08 5.33726e+08 4.08391e+08 3.55059e+08 4.99363e+08 2.49856e+08 2.17095e+08 2.14577e+08 2.3639e+08 1.78487e+08 1.5026e+08 1.40324e+08 1.17289e+08 1.16981e+08 1.30466e+08 1.00972e+08 8.31766e+07 7.39807e+07 5.2118e+07 7.67986e+07 4.96001e+07 4.65827e+07 4.56451e+07 4.08851e+07 4.67117e+07 5.58659e+07 5.2663e+07
threshold=47938.30000000001 1641.1750000000002 0 14.500000000000002 10462.000000000002 9865.3750000000018 1 5.5000000000000009 2 10.500000000000002 11.500000000000002 635.50000000000011 6.5000000000000009 31.500000000000004 3 7.5000000000000009 4680.2333333333345 22.500000000000004 30.500000000000004 777.50000000000011 4.5000000000000009 2446.5000000000005 3442.5000000000005 21642.150000000005 4522.5000000000009 15369.000000000002 1004.5000000000001 9.5000000000000018 8.5000000000000018 6.5000000000000009
decision_type=2 2 9 2 2 2 9 2 9 2 2 2 2 2 9 2 2 2 2 2 2 2 2 2 2 2 2 2 2 2
left_child=1 6 3 5 14 9 7 -1 -8 21 11 12 -10 25 -5 20 -16 -18 -15 -12 -9 -3 -23 -20 -11 -6 -13 29 -29 -28
right_child=-2 2 -4 4 13 -7 8 15 10 24 19 26 -14 18 16 -17 17 -19 23 -21 -22 22 -24 -25 -26 -27 27 28 -30 -31
leaf_value=148.37158760766724 420.33111516602185 192.16607141183772 -20.939807736438777 59.63360087864308 92.643845173098015 286.35648378556778 -24.894846296508447 15.768564499446326 111.55546701604669 55.17344638242534 -17.570679719880456 26.936820671658321 -6.6335632880528763 18.387356479351336 7.4168937094309246 -7.1915179423179971 73.361458710904387 20.451595661974601 62.473739997863767 -3.1848646085077621 94.600740886184411 66.211888986453417 161.06027811898127 126.93041640986567 112.30336363419242 144.9902911312609 46.537150697708135 -8.4499102401733399 68.479162967811192 129.09614701952253
leaf_weight=73 48 45 784 205 105 30 3601 69 32 189 3371 166 998 103 1189 331 158 441 99 1432 52 39 53 45 45 82 39 39 58 41
leaf_count=73 48 45 784 205 105 30 3601 69 32 189 3371 166 998 103 1189 331 158 441 99 1432 52 39 53 45 45 82 39 39 58 41
internal_value=0.0315204 -1.44852 29.4293 43.3164 32.2339 111.222 -12.2764 27.4432 -14.4252 96.3287 -8.28731 9.12565 -2.85703 82.4205 21.2693 8.23412 16.4148 34.5068 56.4454 -13.2831 50.1446 146.271 121.997 83.3529 66.5911 116.247 45.0123 61.718 37.7783 89.9201
internal_weight=13962 13914 3612 2828 2427 401 10302 525 9777 371 6176 1373 1030 434 1993 452 1788 599 247 4803 121 137 92 144 234 187 343 177 97 80
internal_count=13962 13914 3612 2828 2427 401 10302 525 9777 371 6176 1373 1030 434 1993 452 1788 599 247 4803 121 137 92 144 234 187 343 177 97 80
cat_boundaries=0 1 112 113 114
cat_threshold=1162 0 0 0 0 0 0 0 0 0 0 0 0 0 0 0 0 0 0 0 0 0 0 0 0 0 0 0 0 0 0 0 0 0 0 0 0 0 0 0 0 0 0 1 0 0 0 0 0 0 0 0 0 0 0 0 0 0 0 0 268435456 32768 0 0 0 0 524288 0 0 0 0 0 4096 0 0 0 0 0 0 0 0 0 0 0 0 0 0 0 0 0 0 0 0 0 0 0 4 0 0 0 0 0 0 0 0 0 0 0 0 0 0 16384 533 128
is_linear=0
shrinkage=0.05


Tree=4
num_leaves=31
num_cat=4
split_feature=1 1 3 2 1 2 3 2 4 1 2 2 1 2 0 1 2 1 0 0 3 1 2 0 0 1 1 2 2 0
split_gain=3.2308e+09 1.55597e+09 8.77829e+08 7.65522e+08 4.24779e+08 3.89847e+08 3.25101e+08 4.36747e+08 3.05644e+08 2.78141e+08 2.44226e+08 1.30177e+08 1.63897e+08 1.30117e+08 1.21083e+08 1.40024e+08 1.13481e+08 1.1103e+08 1.05785e+08 1.05317e+08 9.80352e+07 8.90185e+07 8.74956e+07 6.77986e+07 5.47419e+07 5.04957e+07 6.47594e+07 4.96251e+07 4.80078e+07 3.9909e+07
threshold=47938.30000000001 1641.1750000000002 0 13.500000000000002 8455.0000000000018 24.500000000000004 1 10.500000000000002 2 7836.1416666666673 5.5000000000000009 20.500000000000004 5356.8500000000013 9.5000000000000018 6.5000000000000009 35.350000000000009 7.5000000000000009 973.50000000000011 13.500000000000002 4.5000000000000009 3 17823.500000000004 8.5000000000000018 7.5000000000000009 9.5000000000000018 2350.0000000000005 3342.5000000000005 31.500000000000004 14.500000000000002 9.5000000000000018
decision_type=2 2 9 2 2 2 9 2 9 2 2 2 2 2 2 2 2 2 2 2 9 2 2 2 2 2 2 2 2 2
left_child=1 6 -3 9 11 18 -1 8 -8 13 -10 12 -5 25 15 -12 19 -9 -6 -17 -7 27 -16 -24 -15 -4 -27 -22 29 -19
right_child=-2 2 3 4 5 20 7 17 10 -11 14 -13 -14 24 22 16 -18 28 -20 -21 21 -23 23 -25 -26 26 -28 -29 -30 -31
leaf_value=-23.695592672501245 422.56852605183923 -24.730570355583641 195.25169590115547 26.376202989191338 64.48843241471512 6.6003565752437359 -14.317573880316388 -15.336509395702988 109.90479204750062 247.55118882796341 119.80431242296773 8.4323452901897706 100.44637857100543 41.385486131073328 133.37274028553682 4.4225465551018717 -6.5692226982375148 0.61165193628381809 151.30905150056796 70.98341496371421 72.306831624772812 101.76450483632642 9.7879769844344917 71.106508458985218 96.28870479985288 58.704357910156254 157.01009357154371 19.03946138734403 -2.8611333264066374 42.616122945944468
leaf_weight=3599 44 669 31 630 51 162 447 4213 99 33 30 1243 84 92 33 119 368 107 130 118 71 85 78 107 94 32 39 114 917 119
leaf_count=3599 44 669 31 630 51 162 447 4213 99 33 30 1243 84 92 33 119 368 107 130 118 71 85 78 107 94 32 39 114 917 119
internal_value=-0.409398 -1.77725 26.7333 38.5989 29.6131 65.9025 -11.5816 -5.08225 19.7772 111.425 35.5613 18.2182 35.2186 95.0241 27.2307 16.1441 10.8147 -11.5876 127.335 37.7216 39.929 57.464 59.3033 45.4449 69.4988 140.444 114.134 39.7615 2.23206 22.8194
internal_weight=13958 13914 3560 2891 2570 613 10354 6755 1399 321 952 1957 714 288 853 635 605 5356 181 237 432 270 218 185 186 102 71 185 1143 226
internal_count=13958 13914 3560 2891 2570 613 10354 6755 1399 321 952 1957 714 288 853 635 605 5356 181 237 432 270 218 185 186 102 71 185 1143 226
cat_boundaries=0 1 2 129 130
cat_threshold=517 533 0 0 0 0 0 0 16777216 0 0 0 0 0 0 0 0 0 0 0 0 0 0 0 0 0 0 0 0 0 0 0 0 0 0 0 0 0 4194304 0 0 0 0 0 0 0 0 0 0 0 0 0 0 0 0 0 0 0 0 0 0 0 0 0 0 0 0 0 0 0 0 0 0 0 0 0 0 0 0 0 0 0 0 0 0 0 0 0 0 0 0 0 0 0 0 0 0 0 0 0 0 0 0 0 0 0 64 2097152 0 0 0 0 0 0 0 0 0 0 0 0 0 0 0 0 0 0 0 0 8 1026
is_linear=0
shrinkage=0.05


Tree=5
num_leaves=31
num_cat=4
split_feature=1 1 3 2 1 1 3 2 4 2 2 1 1 1 3 0 1 1 0 1 2 2 2 1 2 0 0 2 0 1
split_gain=2.83164e+09 1.60921e+09 8.08296e+08 6.24805e+08 3.83462e+08 3.71925e+08 3.2457e+08 3.91698e+08 3.72552e+08 2.29302e+08 2.2623e+08 1.39261e+08 1.29585e+08 1.24517e+08 1.13609e+08 9.19141e+07 7.59617e+07 7.20654e+07 7.13832e+07 1.31741e+08 8.79794e+07 6.84104e+07 6.76778e+07 7.4523e+07 5.84059e+07 6.0101e+07 5.56443e+07 5.54e+07 5.41989e+07 5.0557e+07
threshold=47938.30000000001 2054.0000000000005 0 13.500000000000002 8137.5000000000009 8137.5000000000009 1 10.500000000000002 2 28.500000000000004 6.5000000000000009 1361.7666666666669 574.50000000000011 74.491666666666688 3 5.5000000000000009 13188.525000000001 315.24166666666673 17.500000000000004 15369.000000000002 24.500000000000004 10.500000000000002 17.500000000000004 4892.2250000000013 8.5000000000000018 8.5000000000000018 10.500000000000002 14.500000000000002 9.5000000000000018 574.50000000000011
decision_type=2 2 9 2 2 2 9 2 9 2 2 2 2 2 9 2 2 2 2 2 2 2 2 2 2 2 2 2 2 2
left_child=1 6 3 4 21 14 -1 8 -8 18 17 13 -9 -12 -5 -15 -11 -10 19 -7 -20 -3 23 -16 -17 -26 -23 28 -14 -19
right_child=-2 2 -4 5 -6 9 7 12 10 16 11 -13 27 15 22 24 -18 29 20 -21 -22 26 -24 -25 25 -27 -28 -29 -30 -31
leaf_value=-22.625821633956981 383.14292432069783 122.92182953762558 -19.28686718130329 59.223191581977602 275.83522944594876 39.967431201537451 -12.447211743057698 -16.778063823881602 47.139262956109917 17.287383003390971 116.02826976198139 102.91612906205029 -0.71324027675263435 -3.9457550706090156 28.395827893246999 72.029861875878098 63.538514159371459 152.40725524595805 173.39764788150788 152.13598590263953 87.663808017143836 45.976350200077164 11.770197618712498 104.69576703585113 12.556011622261119 83.304128777640216 118.16809113331331 -5.2954757647822044 33.047442218748117 77.317275488111704
leaf_weight=3700 47 105 648 171 32 83 570 3256 54 167 32 56 281 295 187 78 191 55 63 38 64 93 1166 38 215 34 38 1940 205 44
leaf_count=3700 47 105 648 171 32 83 570 3256 54 167 32 56 281 295 187 78 191 55 63 38 64 93 1166 38 215 34 38 1940 205 44
internal_value=-0.228937 -1.55279 30.3009 43.3954 115.474 34.6362 -10.6382 -4.36399 18.982 67.8581 39.4188 27.9118 -10.2618 21.3421 21.7121 16.2924 42.0715 94.849 104.764 76.1522 131.216 92.6584 16.5174 41.6883 34.5064 22.511 67.654 -1.51293 13.566 120.141
internal_weight=13946 13899 3084 2436 268 2168 10815 7115 1433 606 863 710 5682 654 1562 622 358 153 248 121 127 236 1391 225 327 249 131 2426 486 99
internal_count=13946 13899 3084 2436 268 2168 10815 7115 1433 606 863 710 5682 654 1562 622 358 153 248 121 127 236 1391 225 327 249 131 2426 486 99
cat_boundaries=0 1 2 253 254
cat_threshold=1162 533 0 0 0 0 0 0 16777216 0 0 4194304 0 0 0 0 0 0 0 0 0 0 0 0 0 1048576 0 0 0 0 0 0 0 0 0 0 0 0 4194304 0 0 0 0 0 0 0 0 0 0 0 0 0 0 0 0 0 0 0 0 0 0 0 0 0 0 0 0 0 0 0 0 0 0 0 0 0 0 0 0 0 0 0 0 0 0 0 0 0 0 0 0 0 0 0 0 0 0 0 0 0 0 0 0 0 0 0 64 2097152 0 0 0 0 0 0 0 0 0 0 0 0 0 0 0 0 0 0 0 0 8 0 0 0 0 0 0 0 0 0 0 0 0 0 0 0 0 0 0 0 0 0 0 0 0 0 0 0 0 0 0 0 0 0 0 0 0 0 0 0 0 0 0 0 0 0 0 0 0 0 0 0 0 0 0 0 0 0 0 0 0 0 0 268435456 0 0 0 0 0 0 0 0 0 0 0 0 0 0 0 0 0 0 0 0 0 0 0 0 0 0 0 0 0 0 0 0 0 0 0 0 0 0 0 0 0 0 0 0 0 0 0 0 0 0 0 0 0 0 0 0 0 0 0 0 65536 128
is_linear=0
shrinkage=0.05


Tree=6
num_leaves=31
num_cat=3
split_feature=1 1 3 2 1 1 3 2 1 2 2 1 1 2 0 1 2 1 3 0 1 2 2 1 0 1 0 2 0 0
split_gain=3.15604e+09 1.42132e+09 8.00344e+08 7.52397e+08 3.89986e+08 3.5691e+08 2.64626e+08 3.70535e+08 2.73321e+08 2.29424e+08 2.04818e+08 1.3075e+08 1.10808e+08 1.0671e+08 1.17818e+08 1.04352e+08 9.45203e+07 1.03244e+08 8.60009e+07 7.66599e+07 7.49203e+07 6.9344e+07 6.4442e+07 6.22729e+07 5.70164e+07 5.30061e+07 5.00119e+07 4.97689e+07 7.56635e+07 4.82405e+07
threshold=47938.30000000001 1641.1750000000002 0 14.500000000000002 9057.0000000000018 5356.8500000000013 1 9.5000000000000018 300.14166666666671 19.500000000000004 9.5000000000000018 21642.150000000005 434.50000000000006 5.5000000000000009 5.5000000000000009 2350.0000000000005 30.500000000000004 7836.1416666666673 2 17.500000000000004 539.50000000000011 14.500000000000002 8.5000000000000018 3442.5000000000005 30.500000000000004 3963.5000000000005 7.5000000000000009 24.500000000000004 25.500000000000004 8.5000000000000018
decision_type=2 2 9 2 2 2 9 2 2 2 2 2 2 2 2 2 2 2 9 2 2 2 2 2 2 2 2 2 2 2
left_child=1 6 -3 4 10 18 -1 8 -8 -7 15 16 -9 20 -15 -4 17 -11 -5 -19 -10 29 -16 -17 -18 -12 -24 -21 -29 -14
right_child=-2 2 3 5 -6 9 7 12 13 11 25 -13 21 14 22 23 24 19 -20 27 -22 -23 26 -25 -26 -27 -28 28 -30 -31
leaf_value=-21.331650608180965 405.18308346271516 -22.505963235613947 218.2598131988988 47.088252874449189 252.79239381489003 107.52168382430398 -0.47965618003772142 -16.424321746901295 138.04910978281274 23.948969391570696 45.406847736728253 93.941638566970823 -0.64993528088039543 11.466811386132854 97.126612702659941 55.31218955993652 2.4032141418749347 26.490581777360706 7.2974688230453824 141.96333241780599 39.511684839653249 -7.0132292706048176 15.715797987620036 148.88046535310292 40.572622956781629 93.218150101584953 86.566842289974829 34.57865003622495 129.48113901808458 26.029812772171784
leaf_weight=3603 47 685 32 142 37 147 583 2905 52 173 188 99 375 194 91 34 260 53 1348 44 32 2023 74 41 156 86 37 51 36 308
leaf_count=3603 47 685 32 142 37 147 583 2905 52 173 188 99 375 194 91 34 260 53 1348 44 32 2023 74 41 156 86 37 51 36 308
internal_value=0.447578 -0.951108 26.0245 37.3351 99.4975 27.0921 -10.4337 -4.50931 22.5378 49.8817 83.9878 40.0529 -9.64452 50.4374 39.3952 142.514 33.0388 51.8851 11.4834 77.8796 101.418 -2.36274 66.0289 107.749 16.7797 60.6977 39.8949 98.3124 74.8738 11.4018
internal_weight=13936 13889 3612 2927 418 2509 10277 6674 1063 1019 381 872 5611 480 396 107 773 357 1490 184 84 2706 202 75 416 274 111 131 87 683
internal_count=13936 13889 3612 2927 418 2509 10277 6674 1063 1019 381 872 5611 480 396 107 773 357 1490 184 84 2706 202 75 416 274 111 131 87 683
cat_boundaries=0 1 2 3
cat_threshold=517 533 128
is_linear=0
shrinkage=0.05


Tree=7
num_leaves=31
num_cat=5
split_feature=1 2 3 3 3 2 4 1 2 1 2 1 2 2 1 0 0 2 0 0 0 2 1 0 1 2 1 3 2 1
split_gain=1.58428e+09 2.02416e+09 5.56364e+08 5.26648e+08 4.35554e+08 3.53966e+08 3.53725e+08 3.09643e+08 2.78453e+08 3.64702e+08 1.57845e+08 1.57995e+08 1.51475e+08 1.04755e+08 9.82703e+07 9.5257e+07 7.69533e+07 6.57351e+07 9.65356e+07 6.28221e+07 5.47733e+07 1.42561e+08 9.31826e+07 5.34524e+07 4.45721e+07 4.10642e+07 4.07557e+07 3.6349e+07 3.67828e+07 3.63021e+07
threshold=5816.0000000000009 11.500000000000002 0 1 2 10.500000000000002 3 1133.5000000000002 30.500000000000004 14251.500000000002 5.5000000000000009 1004.5000000000001 9.5000000000000018 14.500000000000002 53.341666666666676 15.500000000000002 11.500000000000002 8.5000000000000018 4.5000000000000009 20.500000000000004 15.500000000000002 23.500000000000004 9057.0000000000018 30.500000000000004 2826.5000000000005 36.500000000000007 3666.8333333333335 4 22.500000000000004 324.50000000000006
decision_type=2 2 9 9 9 2 9 2 2 2 2 2 2 2 2 2 2 2 2 2 2 2 2 2 2 2 2 9 2 2
left_child=2 -2 12 8 -4 6 -6 -7 9 20 29 14 -1 16 -12 -11 -9 18 -16 -17 -3 22 -22 -10 -15 -25 -14 28 -5 -8
right_child=1 3 4 27 5 7 10 13 23 15 11 -13 26 24 17 19 -18 -19 -20 -21 21 -23 -24 25 -26 -27 -28 -29 -30 -31
leaf_value=149.94678586915481 362.01493672389614 36.22983685059981 -20.424321738610438 49.990887290954589 -13.580441248558524 -12.912384418306544 55.620468390615365 21.840201723179696 10.877143077152532 236.72009141873093 98.661956987882917 70.523090856432347 37.892781173265902 -0.53632468259379895 2.26024098615436 79.731155361848721 78.095786076105099 1.04156570489696 59.939435948080316 178.3923577057688 84.393332342668018 50.001843439021584 199.78969072284121 98.818756866455089 14.746431843365466 37.864944751280596 87.939096932227798 -15.786864994466306 0.74319696705552607 119.89866837174145
leaf_weight=42 50 109 4030 49 473 4489 37 270 163 38 37 206 207 1314 135 33 78 345 156 37 43 141 32 35 748 132 51 245 157 66
leaf_count=42 50 109 4030 49 473 4489 37 270 163 38 37 206 207 1314 135 33 78 345 156 37 43 141 32 35 748 132 51 245 157 66
internal_value=0.0249481 53.3829 -5.29613 40.3841 -6.94503 -0.424265 21.9777 -5.15196 65.234 92.428 38.8444 32.3019 60.7789 9.30239 20.5155 171.76 34.6369 15.8215 33.2804 133.659 65.6194 80.2149 135.61 31.3516 5.01203 51.1519 48.087 -3.08326 12.0598 97.5653
internal_weight=13948 1264 12684 1214 12384 8354 1455 6899 763 433 982 879 300 2410 673 108 348 636 291 70 325 216 75 330 2062 167 258 451 206 103
internal_count=13948 1264 12684 1214 12384 8354 1455 6899 763 433 982 879 300 2410 673 108 348 636 291 70 325 216 75 330 2062 167 258 451 206 103
cat_boundaries=0 1 2 3 254 255
cat_threshold=128 138 533 0 0 0 0 0 0 16777216 0 0 0 0 0 0 0 0 0 0 0 0 0 0 0 0 0 0 0 0 0 0 0 0 0 0 0 0 0 4194304 0 0 0 0 0 0 0 0 0 0 0 0 0 0 0 0 0 0 0 0 0 0 0 0 0 0 0 0 0 0 0 0 0 0 0 0 0 0 0 0 0 0 0 0 0 0 0 0 0 0 0 0 0 0 0 0 0 0 0 0 0 0 0 0 512 0 0 64 2097152 0 0 0 0 0 0 0 0 0 0 0 0 0 0 0 0 0 0 0 0 8 0 0 0 0 0 0 0 0 0 0 0 0 0 0 0 0 0 0 0 0 0 0 0 0 0 0 0 0 0 0 0 0 0 0 0 0 0 0 0 0 0 0 0 0 0 0 0 0 0 0 0 0 0 0 0 0 0 0 0 0 0 0 0 0 0 0 0 0 0 0 0 0 0 0 0 0 0 0 0 0 0 0 0 0 0 0 0 0 0 0 0 0 0 0 0 0 0 0 0 0 0 0 0 0 0 0 0 0 0 0 0 0 0 0 0 0 0 0 0 0 0 0 0 65536 1024
is_linear=0
shrinkage=0.05


Tree=8
num_leaves=31
num_cat=5
split_feature=1 1 3 2 1 1 3 2 1 3 2 0 2 1 3 2 0 2 2 1 2 1 2 1 2 2 0 4 2 1
split_gain=3.55554e+09 1.13813e+09 5.97325e+08 5.01074e+08 4.12895e+08 3.08753e+08 2.34021e+08 3.28466e+08 2.7351e+08 1.38874e+08 1.33055e+08 9.24728e+07 1.3723e+08 9.0888e+07 8.99989e+07 8.36279e+07 5.46898e+07 9.29238e+07 5.10601e+07 5.67705e+07 4.71569e+07 4.66869e+07 8.29765e+07 4.3204e+07 4.29383e+07 4.1624e+07 6.6158e+07 3.5385e+07 3.48398e+07 4.70726e+07
threshold=47938.30000000001 1901.5000000000002 0 13.500000000000002 8455.0000000000018 11606.866666666669 1 9.5000000000000018 300.14166666666671 2 20.500000000000004 6.5000000000000009 7.5000000000000009 554.50000000000011 3 10.500000000000002 5.5000000000000009 5.5000000000000009 30.500000000000004 4680.2333333333345 14.500000000000002 3569.5000000000005 24.500000000000004 2446.5000000000005 17.500000000000004 44.500000000000007 30.500000000000004 4 31.500000000000004 14251.500000000002
decision_type=2 2 9 2 2 2 9 2 2 9 2 2 2 2 9 2 2 2 2 2 2 2 2 2 2 2 2 9 2 2
left_child=1 6 -3 4 15 9 -1 8 27 21 -7 12 16 -9 -12 23 17 -10 19 24 -15 -5 -23 -4 -11 26 28 -8 29 -16
right_child=-2 2 3 5 -6 10 7 13 11 18 14 -13 -14 20 25 -17 -18 -19 -20 -21 -22 22 -24 -25 -26 -27 -28 -29 -30 -31
leaf_value=-19.412722087213101 429.86079476674399 -20.625465659969318 155.16344319511865 34.365922903760953 269.44481060889461 131.79569422309078 -11.305059386861515 -13.802091023571704 88.801374195240157 32.217886052353713 13.061744700642084 90.218341912769134 -2.9055316628728596 10.987954779353593 40.307508893694198 48.314328765869142 104.24424074280938 20.355818691423153 0.56053703906106167 34.313308349567627 -5.0932900709431559 123.11318359051721 33.120091708004473 85.917100364747256 5.9864947231880201 29.030951129822508 135.91583340703227 13.334292368509779 31.566806769857603 119.62789873869522
leaf_weight=3643 47 595 33 93 30 66 363 3382 80 203 116 104 139 600 34 138 52 130 487 433 1887 58 47 91 666 41 48 228 48 45
leaf_count=3643 47 595 33 93 30 66 363 3382 80 203 116 104 139 600 34 138 52 130 487 433 1887 58 47 91 666 41 48 228 48 45
internal_value=0.272597 -1.21292 24.5625 34.558 96.411 27.0929 -9.16481 -3.76941 21.3395 19.0215 67.24 48.3214 37.2579 -8.46761 54.0494 75.6488 58.4961 46.7276 14.295 19.5375 -1.21076 57.8174 83.523 105.439 12.1442 71.9806 85.9108 -1.75878 66.097 86.4206
internal_weight=13927 13880 3272 2677 292 2385 10608 6965 1096 1987 398 505 401 5869 332 262 262 210 1789 1302 2487 198 105 124 869 216 175 591 127 79
internal_count=13927 13880 3272 2677 292 2385 10608 6965 1096 1987 398 505 401 5869 332 262 262 210 1789 1302 2487 198 105 124 869 216 175 591 127 79
cat_boundaries=0 1 2 3 4 131
cat_threshold=517 533 128 1026 0 0 0 0 0 0 16777216 0 0 4194304 0 0 0 0 0 0 0 0 0 0 0 0 0 0 0 0 0 0 0 0 0 0 0 0 0 0 0 0 0 0 0 0 0 0 0 0 0 0 0 0 0 0 0 0 0 0 0 0 0 0 0 0 0 0 0 0 0 0 0 0 0 0 0 0 0 0 0 0 0 0 0 0 0 0 0 0 0 0 0 0 0 0 0 0 0 0 0 0 0 0 0 0 0 0 64 2097152 0 0 0 0 0 0 0 0 0 0 0 0 0 0 0 0 0 0 0 0 8
is_linear=0
shrinkage=0.05


Tree=9
num_leaves=31
num_cat=5
split_feature=1 1 3 2 1 4 2 1 3 1 2 2 3 0 2 2 1 2 1 1 0 2 0 2 1 1 2 4 0 1
split_gain=1.75186e+09 1.07814e+09 6.34717e+08 4.6877e+08 4.69507e+08 2.39784e+08 2.74883e+08 2.28491e+08 1.5186e+08 1.47849e+08 1.86215e+08 1.4338e+08 1.3564e+08 1.15759e+08 1.0801e+08 7.76613e+07 7.24331e+07 7.09214e+07 7.08289e+07 5.99642e+07 5.76898e+07 8.72661e+07 4.74865e+07 9.80999e+07 4.62504e+07 4.44203e+07 4.14618e+07 5.48723e+07 3.73177e+07 2.96675e+07
threshold=47938.30000000001 1901.5000000000002 0 14.500000000000002 9057.0000000000018 1 6.5000000000000009 7836.1416666666673 2 777.50000000000011 11.500000000000002 30.500000000000004 3 13.500000000000002 8.5000000000000018 19.500000000000004 5222.0000000000009 20.500000000000004 15369.000000000002 3871.2166666666667 5.5000000000000009 8.5000000000000018 6.5000000000000009 9.5000000000000018 21642.150000000005 315.24166666666673 12.500000000000002 4 15.500000000000002 3179.0000000000005
decision_type=2 2 9 2 2 9 2 2 9 2 2 2 9 2 2 2 2 2 2 2 2 2 2 2 2 2 2 9 2 2
left_child=1 5 3 4 14 6 25 17 -7 26 22 13 -4 -9 -3 28 -16 19 -15 -5 -8 -22 -11 -24 -13 -1 27 -10 -14 -19
right_child=-2 2 12 7 -6 8 20 11 9 10 -12 24 15 18 16 -17 -18 29 -20 -21 21 -23 23 -25 -26 -27 -28 -29 -30 -31
leaf_value=54.002678065829812 322.51856671287902 142.51712561193503 -19.582014662219635 22.737608184627462 282.94155264198781 -18.461313585303298 -7.0515333322892459 11.604854731126267 -13.271016081988726 13.234652164459229 -0.81296927673143671 21.929487588550106 26.269894241378424 82.244390633643079 44.127654976295496 0.85016825613919755 115.82356291425991 -2.1518443237332736 147.17149446578253 63.747394341530565 100.45635719365544 5.668808954640439 105.28169181880668 31.080416340758838 74.767726451945762 126.74188541079326 -13.835381411885379 6.8399480641284995 79.304877433776866 18.450121755925313
leaf_weight=35 41 52 609 254 31 3643 242 43 672 99 1664 197 209 150 152 512 46 271 62 138 35 75 66 137 52 62 3139 665 39 490
leaf_count=35 41 52 609 254 31 3643 242 43 672 99 1664 197 209 150 152 512 46 271 62 138 35 75 66 137 52 62 3139 665 39 490
internal_value=0.0868564 -0.891486 24.0102 42.2994 102.138 -8.71055 26.6578 32.3515 -10.3039 -5.66722 5.75132 60.408 -2.18539 86.7239 78.6799 11.8353 61.2826 20.0457 101.834 37.3002 6.61115 36.4618 41.8034 55.6028 33.2189 101.315 -10.6954 -3.31861 34.8951 11.1204
internal_weight=13882 13841 3307 1938 281 10534 449 1657 10085 6442 1966 504 1369 255 250 760 198 1153 212 392 352 110 302 203 249 97 4476 1337 248 761
internal_count=13882 13841 3307 1938 281 10534 449 1657 10085 6442 1966 504 1369 255 250 760 198 1153 212 392 352 110 302 203 249 97 4476 1337 248 761
cat_boundaries=0 1 112 113 114 365
cat_threshold=138 0 0 0 0 0 0 0 0 0 0 0 0 0 0 0 0 0 0 0 0 2147483648 0 0 0 0 0 0 0 0 0 0 0 0 0 0 0 8 0 0 0 0 0 1 0 0 0 0 0 0 0 0 0 0 0 0 0 0 0 0 268435456 32768 0 0 0 0 524288 0 0 0 0 0 0 0 0 0 0 0 0 0 0 0 0 0 0 0 262144 0 0 0 0 16 0 0 0 0 4 0 0 0 0 0 0 0 0 0 0 0 0 0 0 16384 533 517 0 0 0 0 0 0 16777216 0 0 4194304 0 0 0 0 0 0 0 0 0 0 0 0 0 0 0 0 0 0 0 0 0 0 0 0 0 0 4194304 0 0 0 0 0 0 0 0 0 0 0 0 0 0 0 0 0 0 0 0 0 0 0 0 0 0 0 0 0 0 0 0 0 0 0 0 0 0 0 0 0 0 0 0 0 0 0 0 0 0 0 0 0 0 0 0 0 0 0 0 0 0 0 0 0 0 0 64 2097152 0 0 0 0 0 0 0 0 0 0 0 0 0 0 0 0 0 0 0 0 8 0 0 0 0 0 0 32 0 0 0 0 0 0 0 0 0 0 0 0 0 0 0 0 0 0 0 0 0 0 0 0 0 0 0 0 0 0 0 0 0 0 0 0 0 0 0 0 0 0 0 0 0 0 0 0 0 0 0 0 0 0 0 0 0 0 0 0 0 0 0 0 0 0 0 0 0 0 0 0 0 0 0 0 0 0 0 0 0 0 0 0 0 0 0 0 0 0 0 0 0 0 0 0 0 0 0 0 0 0 0 0 0 0 0 0 0 0 0 0 0 0 0 0 65536
is_linear=0
shrinkage=0.05


Tree=10
num_leaves=31
num_cat=5
split_feature=1 1 3 2 3 2 4 1 2 1 1 1 1 2 2 1 0 3 3 2 0 0 2 2 0 1 0 2 2 2
split_gain=2.40159e+09 9.71586e+08 5.47579e+08 4.42596e+08 2.98771e+08 3.39923e+08 3.25096e+08 2.96075e+08 2.14978e+08 1.75149e+08 1.65571e+08 1.41026e+08 1.01102e+08 1.65472e+08 9.67656e+07 9.53307e+07 7.68752e+07 7.63583e+07 6.75195e+07 4.65097e+07 4.6373e+07 4.42623e+07 8.04724e+07 4.30157e+07 5.17133e+07 3.95451e+07 3.87744e+07 3.49969e+07 3.37215e+07 3.28421e+07
threshold=47938.30000000001 3442.5000000000005 0 16.500000000000004 1 11.500000000000002 2 12433.741666666669 6.5000000000000009 1056.5000000000002 1293.0083333333337 53.341666666666676 7438.5000000000009 30.500000000000004 9.5000000000000018 315.24166666666673 5.5000000000000009 3 4 22.500000000000004 29.500000000000004 17.500000000000004 23.500000000000004 8.5000000000000018 8.5000000000000018 4680.2333333333345 9.5000000000000018 20.500000000000004 28.500000000000004 24.500000000000004
decision_type=2 2 9 2 9 2 9 2 2 2 2 2 2 2 2 2 2 9 9 2 2 2 2 2 2 2 2 2 2 2
left_child=1 4 3 7 -1 6 -6 14 15 11 -7 -10 29 21 -3 -8 -13 19 -12 25 -15 -14 -23 -18 -25 -4 -16 -20 -24 -5
right_child=-2 2 17 12 5 10 8 -9 9 -11 18 16 13 20 26 -17 23 -19 27 -21 -22 22 28 24 -26 -27 -28 -29 -30 -31
leaf_value=-17.487764005538434 353.62711394627894 169.84553414547082 0.87499185403188084 37.530196937417564 -12.320436367297692 -11.100155532018318 29.243559469025712 253.73314767164345 112.22457094753491 59.554598466945144 37.627263076758638 -8.3764737016823378 51.123908652199646 2.1198588590009497 33.220568661159938 108.02183276078392 57.807290568222868 -16.056595415451948 12.11623820702691 1.7284463695258148 44.76196821958591 156.58394076305888 93.418063478691636 7.2563145494289536 64.54133748800858 57.372717123765213 90.134977075288887 -3.4574821303159071 32.590466894822967 12.191488748250599
leaf_weight=3879 47 32 47 225 586 4527 57 33 33 264 157 366 71 108 44 123 73 414 696 241 155 45 85 277 45 90 105 747 33 298
leaf_count=3879 47 32 47 225 586 4527 57 33 33 264 157 366 71 108 44 123 73 414 696 241 155 45 85 277 45 90 105 747 33 298
internal_value=0.5677 -0.655322 31.3296 51.926 -6.13522 -0.572524 18.3687 117.586 32.7287 24.3506 -6.21431 12.5854 38.5571 54.6983 91.5062 83.3748 8.12301 -1.42323 7.60787 14.6046 27.3255 85.2162 99.664 23.3937 15.437 38.1371 73.6616 4.02945 76.8238 23.1433
internal_weight=13903 13856 2026 1234 11830 7951 1824 214 1238 1058 6127 794 1020 497 181 180 761 792 1600 378 263 234 163 395 322 137 149 1443 118 523
internal_count=13903 13856 2026 1234 11830 7951 1824 214 1238 1058 6127 794 1020 497 181 180 761 792 1600 378 263 234 163 395 322 137 149 1443 118 523
cat_boundaries=0 1 2 253 254 255
cat_threshold=138 533 0 0 0 0 0 0 16777216 0 0 4194304 0 0 0 0 0 0 0 0 0 0 0 0 0 0 0 0 0 0 0 0 0 0 0 0 0 0 4194304 0 0 0 0 0 0 0 0 0 0 0 0 0 0 0 0 0 0 0 0 0 0 0 0 0 0 0 0 0 0 0 0 0 0 0 0 0 0 0 0 0 0 0 0 0 0 0 0 0 0 0 0 0 0 0 0 0 0 0 0 0 0 0 0 0 0 0 64 2097152 0 0 0 0 0 0 0 0 0 0 0 0 0 0 0 0 0 0 0 0 8 0 0 0 0 0 0 32 0 0 0 0 0 0 0 0 0 0 0 0 0 0 0 0 0 0 0 0 0 0 0 0 0 0 0 0 0 0 0 0 0 0 0 0 0 0 0 0 0 0 0 0 0 0 0 0 0 0 0 0 0 0 0 0 0 0 0 0 0 0 0 0 0 0 0 0 0 0 0 0 0 0 0 0 0 0 0 0 0 0 0 0 0 0 0 0 0 0 0 0 0 0 0 0 0 0 0 0 0 0 0 0 0 0 0 0 0 0 0 0 0 0 0 0 65536 1024 128
is_linear=0
shrinkage=0.05


Tree=11
num_leaves=31
num_cat=4
split_feature=1 3 3 1 2 2 1 4 2 2 1 1 3 2 0 2 1 0 2 0 1 2 0 0 0 1 1 1 2 2
split_gain=1.90862e+09 8.67134e+08 4.61577e+08 4.76487e+08 2.73885e+08 2.14156e+08 1.85696e+08 1.8394e+08 1.59913e+08 1.31391e+08 1.09381e+08 9.19701e+07 8.68478e+07 8.40114e+07 6.51542e+07 9.32714e+07 5.53644e+07 5.31357e+07 5.39934e+07 6.5721e+07 4.63804e+07 8.55946e+07 4.49556e+07 4.19411e+07 3.87772e+07 3.83117e+07 3.6724e+07 5.117e+07 3.62157e+07 3.33566e+07
threshold=47938.30000000001 0 1 1606.0000000000002 10.500000000000002 10.500000000000002 13188.525000000001 2 5.5000000000000009 9.5000000000000018 7836.1416666666673 69.550000000000011 3 17.500000000000004 5.5000000000000009 8.5000000000000018 414.50000000000006 13.500000000000002 30.500000000000004 30.500000000000004 3666.8333333333335 24.500000000000004 6.5000000000000009 6.5000000000000009 7.5000000000000009 14251.500000000002 315.24166666666673 496.50000000000006 6.5000000000000009 12.500000000000002
decision_type=2 9 9 2 2 2 2 9 2 2 2 2 9 2 2 2 2 2 2 2 2 2 2 2 2 2 2 2 2 2
left_child=1 6 3 5 22 7 9 -3 26 -1 13 -10 17 -6 28 23 -7 -12 -19 -20 -11 -22 -5 -16 -17 -21 -9 -28 -13 -18
right_child=-2 2 -4 4 10 16 -8 8 11 20 12 14 -14 -15 15 24 29 18 19 25 21 -23 -24 -25 -26 -27 27 -29 -30 -31
leaf_value=137.78517879247667 328.87654488303451 -11.590259330718176 -16.679465652046829 54.990165964762369 30.63883766717808 -13.729972318270203 176.79079254551937 47.300723557245163 99.85697236902574 34.429863943131465 10.723343365987143 32.509294866586664 11.761238221248307 6.1733693338785134 48.957540297853775 0.78511049964371526 12.592677345111454 85.824778889913631 9.4606050784771263 31.612166515473401 108.84844881111468 22.376730597019197 125.45209799239886 119.89410651922226 40.239433188390251 107.04401826858521 156.32792855539631 62.076530738174917 -5.6621487289482024 -5.4401137957880765
leaf_weight=47 43 475 4292 38 464 2643 37 41 33 211 59 76 240 1433 68 168 289 136 77 30 70 49 66 31 98 41 30 31 321 2218
leaf_count=47 43 475 4292 38 464 2643 37 41 33 211 59 76 240 1433 68 168 289 136 77 30 70 49 66 31 98 41 30 31 321 2218
internal_value=0.0912512 -0.95607 -3.18325 3.19048 21.3605 -4.0057 69.3599 13.5416 26.68 60.2114 18.0036 19.3545 36.9302 12.1705 15.7419 30.9592 -8.68216 52.5852 63.0588 41.703 48.7801 73.7256 100.475 72.1468 15.4172 76.0531 85.6237 110.203 1.70855 -3.35715
internal_weight=13855 13812 13398 9106 2584 6522 414 1372 897 377 2480 795 583 1897 762 365 5150 343 284 148 330 119 104 99 266 71 102 61 397 2507
internal_count=13855 13812 13398 9106 2584 6522 414 1372 897 377 2480 795 583 1897 762 365 5150 343 284 148 330 119 104 99 266 71 102 61 397 2507
cat_boundaries=0 1 2 129 130
cat_threshold=128 1130 0 0 0 0 0 0 16777216 0 0 4194304 0 0 0 0 0 0 0 0 0 0 0 0 0 0 0 0 0 0 0 0 0 0 0 0 0 0 4194304 0 0 0 0 0 0 0 0 0 0 0 0 0 0 0 0 0 0 0 0 0 0 0 0 0 0 0 0 0 0 0 0 0 0 0 0 0 0 0 0 0 0 0 0 0 0 0 0 0 0 0 0 0 0 0 0 0 0 0 0 0 0 0 0 0 0 0 64 2097152 0 0 0 0 0 0 0 0 0 0 0 0 0 0 0 0 0 0 0 0 8 8
is_linear=0
shrinkage=0.05


Tree=12
num_leaves=31
num_cat=5
split_feature=1 1 3 2 3 3 2 4 1 1 1 2 0 2 3 2 0 2 1 1 2 2 2 2 0 0 1 1 1 2
split_gain=1.44128e+09 8.81183e+08 4.29213e+08 3.10233e+08 2.30152e+08 1.76461e+08 2.15271e+08 2.00298e+08 1.42123e+08 1.11663e+08 1.0075e+08 1.46418e+08 1.29232e+08 9.79045e+07 7.8172e+07 7.42836e+07 7.25351e+07 5.67024e+07 6.17704e+07 5.55628e+07 6.96269e+07 4.97884e+07 4.9359e+07 4.79462e+07 6.5512e+07 4.75516e+07 3.86613e+07 3.68094e+07 5.30882e+07 4.23066e+07
threshold=47938.30000000001 3442.5000000000005 0 17.500000000000004 1 2 9.5000000000000018 3 11606.866666666669 766.00000000000011 5816.0000000000009 24.500000000000004 16.500000000000004 9.5000000000000018 4 5.5000000000000009 5.5000000000000009 14.500000000000002 2397.5000000000005 13188.525000000001 47.000000000000007 9.5000000000000018 19.500000000000004 8.5000000000000018 7.5000000000000009 11.500000000000002 2708.5833333333335 5533.5083333333341 7438.5000000000009 12.500000000000002
decision_type=2 2 9 2 9 9 2 9 2 2 2 2 2 2 9 2 2 2 2 2 2 2 2 2 2 2 2 2 2 2
left_child=1 4 3 8 13 6 7 -6 21 -8 -5 12 -12 -1 22 -9 -17 18 25 -13 -21 -3 -4 -18 -25 -11 -20 29 -29 -23
right_child=-2 2 14 10 5 -7 9 15 -10 17 11 19 -14 -15 -16 16 23 -19 26 20 -22 27 -24 24 -26 -27 -28 28 -30 -31
leaf_value=119.36560562319227 282.47202497694229 132.18333007410953 47.891574045817059 14.713461015978703 -10.032694343429014 -15.75661956389966 -11.44586628978346 74.852076405949063 178.80127914428712 4.1625196834503138 25.462226785865486 20.616854749136682 125.02888557443914 29.556901764047559 -16.602127423005946 12.404060835852725 70.65681107955389 -1.8086446713560109 98.698232852711399 73.586854187180023 0.58025335832075642 1.4827152361188618 5.9824922272295407 2.5973387104272843 79.665282363891606 55.859334224700937 23.480812588253539 140.72852917839501 52.437938983623809 70.180526479085287
leaf_weight=35 44 37 89 372 404 3950 3944 98 44 405 50 295 96 202 363 330 121 2054 33 135 43 34 322 89 39 49 36 33 38 65
leaf_count=35 44 37 89 372 404 3950 3944 98 44 405 50 295 96 202 363 330 121 2054 33 135 43 34 322 89 39 49 36 33 38 65
internal_value=-0.0366214 -0.957442 29.5818 47.5923 -6.18193 -7.19382 -2.72825 17.9233 97.5503 -6.15812 35.3331 47.6811 91.3359 41.521 0.0425363 34.2392 27.8384 1.93589 16.6173 34.0421 56.0522 79.503 14.7929 48.162 26.5145 9.85264 60.3504 67.3313 94.859 46.8381
internal_weight=13849 13805 2016 1242 11789 11552 7602 1081 251 6521 991 619 146 237 774 677 579 2577 523 473 178 207 411 249 128 454 69 170 71 99
internal_count=13849 13805 2016 1242 11789 11552 7602 1081 251 6521 991 619 146 237 774 677 579 2577 523 473 178 207 411 249 128 454 69 170 71 99
cat_boundaries=0 1 2 3 207 208
cat_threshold=138 128 1130 0 0 0 0 0 0 16777216 0 0 4194304 0 0 0 0 0 0 0 0 0 0 0 0 0 0 0 0 0 0 0 0 0 0 0 0 0 0 4194304 0 0 0 0 0 0 0 0 0 0 0 0 0 0 0 0 0 0 0 0 0 0 0 0 0 0 0 0 0 0 0 0 0 0 0 0 0 0 0 0 0 0 0 0 0 0 0 0 0 0 0 0 0 0 0 0 0 0 0 0 0 0 0 0 0 0 0 64 2097152 0 0 0 0 0 0 0 0 0 0 0 0 0 0 0 0 0 0 0 0 8 0 0 0 0 0 0 0 0 0 0 0 0 0 0 0 0 0 0 0 0 0 0 0 0 0 0 0 0 0 0 0 0 0 0 0 0 0 0 0 0 0 0 0 0 0 0 0 0 0 0 0 0 0 0 0 0 0 0 0 0 0 0 0 0 0 0 0 0 0 0 0 0 0 0 0 0 256 1088
is_linear=0
shrinkage=0.05


Tree=13
num_leaves=31
num_cat=5
split_feature=1 2 1 3 3 3 1 3 2 1 2 2 1 1 0 2 2 0 1 2 1 0 2 1 1 2 0 3 2 1
split_gain=9.96878e+08 1.07761e+09 6.19031e+08 4.23145e+08 2.4355e+08 2.24313e+08 1.68048e+08 1.66649e+08 1.57176e+08 1.74855e+08 1.35055e+08 1.32677e+08 1.495e+08 9.23902e+07 8.03535e+07 1.18808e+08 6.37084e+07 5.24386e+07 5.10911e+07 1.03786e+08 1.04592e+08 7.76901e+07 6.19786e+07 5.34103e+07 6.5641e+07 4.39056e+07 6.06577e+07 3.89768e+07 4.1394e+07 3.69603e+07
threshold=3442.5000000000005 10.500000000000002 5816.0000000000009 0 1 2 13188.525000000001 3 10.500000000000002 315.24166666666673 19.500000000000004 16.500000000000004 9865.3750000000018 1101.5000000000002 7.5000000000000009 7.5000000000000009 9.5000000000000018 3.5000000000000004 5816.0000000000009 30.500000000000004 17823.500000000004 18.500000000000004 24.500000000000004 33784.483333333344 21642.150000000005 14.500000000000002 9.5000000000000018 4 22.500000000000004 5650.1083333333345
decision_type=2 2 2 9 9 9 2 9 2 2 2 2 2 2 2 2 2 2 2 2 2 2 2 2 2 2 2 9 2 2
left_child=5 2 -2 6 11 16 10 -7 9 -9 -3 12 29 -10 15 17 -1 -11 -13 20 21 -20 -23 24 -21 26 -15 28 -6 -5
right_child=1 3 -4 4 27 7 -8 8 13 14 -12 18 -14 25 -16 -17 -18 -19 19 23 -22 22 -24 -25 -26 -27 -28 -29 -30 -31
leaf_value=102.49557836432207 72.064350784392587 144.69640040079753 350.76594062805179 70.103064451951255 31.403161346255327 -15.00331425671429 193.4340830221409 -4.1945356286124413 -9.6226762813611568 -7.7101220053595476 35.766767313450941 10.693788783826321 170.94352523579317 -6.0542220056056983 68.394571643670403 1.4366390966156783 31.578206677004403 57.186695130955094 10.370174021814385 12.749240008533979 132.01105789184572 119.97625639380479 47.096154099915708 -47.482466627128666 87.993059435757729 0.30294076862280483 40.278105329778157 -13.979149057040704 -3.4781517071317332 4.9698586295632765
leaf_weight=37 41 44 39 64 126 3924 40 722 4461 36 80 328 33 119 119 294 203 219 101 243 39 40 111 30 32 1611 172 417 257 33
leaf_count=37 41 44 39 64 126 3924 40 722 4461 36 80 328 33 119 119 294 203 219 101 243 39 40 111 30 32 1611 172 417 257 33
internal_value=-0.0269979 31.7461 210.584 24.5555 17.286 -5.62287 99.0814 -6.61791 -2.35859 12.8643 75.2676 32.9865 80.4409 -5.68926 31.2809 23.1266 41.1824 48.0305 26.5869 35.3009 56.6164 44.4725 67.0644 14.8452 21.792 3.53649 21.3754 -3.56626 7.84477 48.2212
internal_weight=14015 2098 80 2018 1854 11917 164 11677 7753 1390 124 1054 130 6363 668 549 240 255 924 596 291 252 151 305 275 1902 291 800 383 97
internal_count=14015 2098 80 2018 1854 11917 164 11677 7753 1390 124 1054 130 6363 668 549 240 255 924 596 291 252 151 305 275 1902 291 800 383 97
cat_boundaries=0 1 2 3 4 5
cat_threshold=128 10 128 533 1024
is_linear=0
shrinkage=0.05


Tree=14
num_leaves=31
num_cat=4
split_feature=1 3 3 1 2 1 2 1 2 1 0 2 1 2 1 2 0 2 2 3 0 2 0 0 0 1 2 1 3 2
split_gain=2.24165e+09 6.17147e+08 3.52892e+08 3.78883e+08 1.99179e+08 2.08173e+08 1.92654e+08 1.59515e+08 1.96561e+08 1.21665e+08 1.03972e+08 9.70733e+07 7.53661e+07 1.02719e+08 6.94034e+07 5.90781e+07 5.50628e+07 8.09742e+07 5.50513e+07 5.37181e+07 4.14337e+07 4.18146e+07 4.08551e+07 3.743e+07 3.46074e+07 3.25001e+07 2.99011e+07 6.55962e+07 2.94358e+07 2.50349e+07
threshold=47938.30000000001 0 1 4522.5000000000009 8.5000000000000018 300.14166666666671 11.500000000000002 4363.4083333333338 20.500000000000004 1004.5000000000001 6.5000000000000009 14.500000000000002 4.5000000000000009 15.500000000000002 12433.741666666669 22.500000000000004 3.5000000000000004 5.5000000000000009 9.5000000000000018 2 4.5000000000000009 7.5000000000000009 7.5000000000000009 30.500000000000004 10.500000000000002 208.08333333333334 31.500000000000004 15369.000000000002 3 11.500000000000002
decision_type=2 9 9 2 2 2 2 2 2 2 2 2 2 2 2 2 2 2 2 9 2 2 2 2 2 2 2 2 9 2
left_child=1 7 -3 4 5 28 -5 18 -9 12 16 22 13 -6 15 24 -7 -18 -1 -16 -19 -22 -11 26 -8 -14 27 -21 -4 -24
right_child=-2 2 3 6 9 10 14 8 -10 11 -12 -13 25 -15 19 -17 17 20 -20 23 21 -23 29 -25 -26 -27 -28 -29 -30 -31
leaf_value=92.09926832150191 341.58661643664044 -14.460358225099942 20.265146567439306 128.64614344657738 107.28648822668828 -14.336583748841898 -5.7812570525378719 173.32642867647371 54.068201068308625 -4.8152607137030294 130.80383491516113 0.55035593078675615 -13.763621435542877 -16.136658891950336 13.654724263780901 8.13485738331641 104.05680310336027 4.9304399715887541 27.754041561793493 12.711682891845705 65.491780001485452 4.9841271962874982 50.099733983580748 96.615020065307618 44.573869054658076 -5.3721930212749207 17.950587521858935 101.32158914242152 -7.5858385122446128 23.25497985972401
leaf_weight=38 47 4263 120 46 32 38 40 57 89 90 36 2027 2034 34 120 551 54 73 240 35 116 38 133 59 223 2670 52 52 333 258
leaf_count=38 47 4263 120 46 32 38 40 57 89 90 36 2027 2034 34 120 551 54 73 240 35 116 38 133 59 223 2670 52 52 333 258
internal_value=0.481743 -0.691817 -2.57438 2.90584 -0.95182 22.5843 29.3885 57.9303 101.49 -3.56754 51.1953 5.34649 -8.25454 44.413 25.2451 17.4699 41.8305 49.45 36.848 45.0305 36.0604 50.6898 25.515 60.172 36.9224 -9.00278 48.4218 66.2235 0.0995721 32.4908
internal_weight=13998 13951 13527 9264 8086 808 1178 424 146 7278 355 2508 4770 66 1132 814 319 281 278 318 227 154 481 198 263 4704 139 87 453 391
internal_count=13998 13951 13527 9264 8086 808 1178 424 146 7278 355 2508 4770 66 1132 814 319 281 278 318 227 154 481 198 263 4704 139 87 453 391
cat_boundaries=0 1 2 3 4
cat_threshold=128 533 1026 96
is_linear=0
shrinkage=0.05


Tree=15
num_leaves=31
num_cat=5
split_feature=1 1 3 1 2 0 2 4 2 3 2 2 1 3 1 2 1 2 1 3 0 2 2 0 0 2 0 2 1 2
split_gain=1.36291e+09 5.81038e+08 3.38318e+08 1.79269e+08 1.64218e+08 1.52943e+08 1.51006e+08 1.45341e+08 2.02718e+08 9.13593e+07 8.08384e+07 7.40939e+07 7.24606e+07 6.0551e+07 6.66095e+07 7.13445e+07 5.68154e+07 5.06375e+07 4.52466e+07 4.26597e+07 3.69934e+07 3.37471e+07 7.82055e+07 3.36653e+07 3.19348e+07 1.38975e+08 3.13117e+07 2.37195e+07 2.23691e+07 1.94826e+07
threshold=47938.30000000001 1606.0000000000002 0 5356.8500000000013 23.500000000000004 19.500000000000004 11.500000000000002 1 7.5000000000000009 2 20.500000000000004 16.500000000000004 3666.8333333333335 3 547.50000000000011 11.500000000000002 13188.525000000001 5.5000000000000009 21642.150000000005 4 6.5000000000000009 11.500000000000002 14.500000000000002 4.5000000000000009 24.500000000000004 28.500000000000004 8.5000000000000018 39.500000000000007 10462.000000000002 9.5000000000000018
decision_type=2 2 9 2 2 2 2 9 2 9 2 2 2 9 2 2 2 2 2 9 2 2 2 2 2 2 2 2 2 2
left_child=1 7 3 6 5 10 12 8 17 -4 16 -11 20 -9 -15 26 21 -1 24 -8 -3 -5 -23 -19 28 -26 29 -20 -6 -16
right_child=-2 2 9 4 18 -7 19 13 -10 11 -12 -13 -14 14 15 -17 -18 23 27 -21 -22 22 -24 -25 25 -27 -28 -29 -30 -31
leaf_value=86.947308368217662 260.76838192749022 51.278564808368685 -14.904876004400064 106.55067867799239 0.29637763696281533 179.16871485854642 33.566899884900742 -13.430875897642686 -3.957921600744092 41.925254059491095 3.0104076717210853 2.7283755431257681 5.5482883644104009 -9.4843784769138413 24.361373120818822 -2.5084680562977058 119.64031908758756 11.551072825556217 99.173048262162638 7.1067414084256857 116.70547610667714 -20.017466473579407 70.437330530147364 61.699696434433783 123.8442374742948 22.090600079756516 48.725102591808934 41.612158759262257 38.321902055006767 -1.4726393139551557
leaf_weight=81 49 39 695 32 151 32 175 3639 412 145 45 693 34 3661 174 2008 57 68 32 966 56 31 98 66 38 246 80 45 51 125
leaf_count=81 49 39 695 32 151 32 175 3639 412 145 45 693 34 3661 174 2008 57 68 32 966 56 31 98 66 38 246 80 45 51 125
internal_value=0.186871 -0.745389 16.3643 29.1886 46.9733 77.1591 17.3755 -6.81955 16.3416 -1.62452 64.1156 9.44002 68.4427 -8.32848 -5.23962 1.24996 76.6578 55.836 31.0478 11.547 90.6599 60.7957 48.7134 36.5252 25.3061 36.0923 21.1169 66.4983 10.0384 13.5923
internal_weight=14024 13975 3661 2128 858 295 1270 10314 627 1533 263 838 129 9687 6048 2387 218 215 563 1141 95 161 129 134 486 284 379 77 202 299
internal_count=14024 13975 3661 2128 858 295 1270 10314 627 1533 263 838 129 9687 6048 2387 218 215 563 1141 95 161 129 134 486 284 379 77 202 299
cat_boundaries=0 1 210 211 212 213
cat_threshold=138 0 0 0 0 0 0 0 0 0 0 0 0 0 0 0 0 0 0 0 0 0 0 0 1048576 0 0 0 0 0 0 0 0 0 0 0 0 0 0 0 0 0 0 1 0 0 0 0 0 0 0 128 0 0 0 0 0 0 0 0 268435456 32768 0 0 0 0 524288 0 0 0 0 0 4096 0 0 0 0 0 0 0 0 0 0 0 0 0 0 0 0 0 0 16 0 0 0 0 4 0 0 0 0 0 0 0 0 0 0 0 0 0 0 0 0 0 0 0 0 0 0 0 0 0 0 0 0 0 0 0 0 0 0 0 0 0 0 0 0 0 0 0 0 0 0 0 0 0 0 0 0 0 0 0 0 0 0 0 0 0 0 0 0 0 0 0 0 0 0 0 0 0 0 0 0 0 0 0 0 0 0 0 0 0 0 0 0 0 0 0 0 0 0 0 0 0 0 0 0 0 0 0 0 0 0 0 0 0 0 0 0 1048576 517 533 128
is_linear=0
shrinkage=0.05


Tree=16
num_leaves=31
num_cat=5
split_feature=1 3 1 3 3 2 4 2 2 1 2 0 2 1 2 0 1 2 1 0 1 0 3 2 0 2 0 1 0 2
split_gain=6.84011e+08 5.33529e+08 3.22508e+08 1.69426e+08 1.37549e+08 1.76414e+08 1.98532e+08 1.13151e+08 1.13095e+08 1.88007e+08 9.38826e+07 8.99326e+07 1.27164e+08 1.1368e+08 6.69878e+07 8.5314e+07 6.51975e+07 6.49778e+07 6.01915e+07 4.8226e+07 4.67835e+07 4.26501e+07 4.04535e+07 3.88344e+07 3.6757e+07 9.49632e+07 5.88203e+07 3.31218e+07 3.05335e+07 3.85714e+07
threshold=47938.30000000001 0 3442.5000000000005 1 2 11.500000000000002 3 16.500000000000004 20.500000000000004 7836.1416666666673 6.5000000000000009 6.5000000000000009 8.5000000000000018 58.500000000000007 7.5000000000000009 5.5000000000000009 12433.741666666669 9.5000000000000018 815.50000000000011 15.500000000000002 7836.1416666666673 8.5000000000000018 4 16.500000000000004 18.500000000000004 28.500000000000004 30.500000000000004 21642.150000000005 12.500000000000002 14.500000000000002
decision_type=2 9 2 9 9 2 9 2 2 2 2 2 2 2 2 2 2 2 2 2 2 2 9 2 2 2 2 2 2 2
left_child=1 8 4 -4 5 6 -3 16 9 17 -8 13 -13 -12 15 -15 -5 -1 -7 -19 -9 -14 24 28 -22 -26 -27 -24 -20 -30
right_child=-2 2 3 7 -6 18 10 20 -10 -11 11 12 21 14 -16 -17 -18 19 23 -21 22 -23 27 -25 25 26 -28 -29 29 -31
leaf_value=113.66500540557115 194.73164171006945 -10.82866212711078 -14.290889693623749 45.270180275895207 -12.898509773074606 -9.5749320592153069 58.589612912580463 9.8754967590336609 24.282150769233706 191.59952144622804 100.12495506040511 128.72259474890572 16.306087904280805 0.023038076400756835 -8.6074678385138235 74.097372104227546 122.71175460815431 30.173169326641428 5.381564216213774 93.07955463223341 12.112683678865434 54.171965742111212 5.5986419042838476 -3.044273122276365 98.840491531990665 4.4976737216115001 64.234144127205624 56.714558060104793 81.371694761706948 18.020385889070376
leaf_weight=45 44 603 351 205 3954 3633 172 728 164 31 30 34 234 99 423 63 31 126 452 40 79 109 223 1752 73 95 72 36 30 111
leaf_count=45 44 603 351 205 3954 3633 172 728 164 31 30 34 234 99 423 63 31 126 452 40 79 109 223 1752 73 95 72 36 30 111
internal_value=0.106731 -0.518901 -2.22588 16.9139 -5.32595 -1.44031 12.4334 23.959 55.1908 78.2223 24.3668 18.6254 37.8205 6.8163 1.86855 29.1076 55.9174 60.7398 -5.54495 45.7979 18.3289 28.4618 28.9406 0.699933 40.6184 51.5978 30.4814 12.4168 11.7486 31.9775
internal_weight=14042 13998 13592 1893 11699 7745 1767 1542 406 242 1164 992 377 615 585 162 236 211 5978 166 1306 343 578 2345 319 240 167 259 593 141
internal_count=14042 13998 13592 1893 11699 7745 1767 1542 406 242 1164 992 377 615 585 162 236 211 5978 166 1306 343 578 2345 319 240 167 259 593 141
cat_boundaries=0 1 2 3 254 255
cat_threshold=128 5 1130 0 0 0 0 0 0 16777216 0 0 4194304 0 0 0 0 0 0 0 0 0 0 0 0 0 0 0 0 0 0 0 0 0 0 0 0 0 0 4194304 0 0 0 0 0 0 0 0 0 0 0 0 0 0 0 0 0 0 0 0 0 0 0 0 0 0 0 0 0 0 0 0 0 0 0 0 0 0 0 0 0 0 0 0 0 0 0 0 0 0 0 0 0 0 0 0 0 0 0 0 0 0 0 0 512 0 0 64 2097152 0 0 0 0 0 0 0 0 0 0 0 0 0 0 0 0 0 0 0 0 8 0 0 0 0 0 0 32 0 0 0 0 0 0 0 0 0 0 0 0 0 0 0 0 0 0 0 0 0 0 0 0 0 0 0 0 0 0 0 0 0 0 0 0 0 0 0 0 0 0 0 0 0 0 0 0 0 0 0 0 0 0 0 0 0 0 0 0 0 0 0 0 0 0 0 0 0 0 0 0 0 0 0 0 0 0 0 0 0 0 0 0 0 0 0 0 0 0 0 0 0 0 0 0 0 0 0 0 0 0 0 0 0 0 0 0 0 0 0 0 0 0 0 0 65536 8
is_linear=0
shrinkage=0.05


Tree=17
num_leaves=31
num_cat=7
split_feature=1 1 3 2 1 3 2 2 4 2 1 3 1 0 2 0 1 2 1 1 1 1 2 0 3 2 3 2 3 0
split_gain=7.51605e+08 5.27386e+08 2.59626e+08 2.37242e+08 1.65275e+08 1.55299e+08 1.5179e+08 9.28615e+07 9.25176e+07 1.14337e+08 5.49809e+07 5.04615e+07 4.13276e+07 5.04559e+07 4.2859e+07 4.57327e+07 8.86563e+07 3.81582e+07 4.11267e+07 3.71532e+07 8.8055e+07 3.46555e+07 3.17206e+07 3.44685e+07 3.14751e+07 4.5534e+07 2.73087e+07 4.6542e+07 2.12283e+07 2.11435e+07
threshold=47938.30000000001 5356.8500000000013 0 13.500000000000002 1162.5000000000002 1 10.500000000000002 30.500000000000004 2 5.5000000000000009 21642.150000000005 3 15369.000000000002 12.500000000000002 23.500000000000004 17.500000000000004 6476.0000000000009 19.500000000000004 3963.5000000000005 2446.5000000000005 1641.1750000000002 7223.0000000000009 8.5000000000000018 4.5000000000000009 4 22.500000000000004 5 8.5000000000000018 6 24.500000000000004
decision_type=2 2 9 2 2 9 2 2 9 2 2 9 2 2 2 2 2 2 2 2 2 2 2 2 9 2 9 2 9 2
left_child=1 4 3 -3 8 6 19 12 9 -1 -9 -7 13 -5 15 16 -15 18 -13 20 -6 -16 23 -11 25 -4 27 -10 -8 -23
right_child=-2 2 24 7 5 11 28 10 26 22 -12 17 -14 14 21 -17 -18 -19 -20 -21 -22 29 -24 -25 -26 -27 -28 -29 -30 -31
leaf_value=70.219943154520465 218.97967333671374 142.30675664265951 49.595325001936693 -3.0478391557269626 49.54002279315079 -13.026050397300972 9.404602027742575 9.7214636013072031 26.160023256109543 1.9459133184873143 62.917320731534801 8.1958578786707879 89.373541893757576 116.87995073050261 11.540665448176398 109.6804772092585 11.956786060333252 -4.4580983463933164 54.985031103620344 32.450971664266383 153.97258696122606 36.127904082101495 -4.5625358518769472 46.355496373929476 -11.043630407218799 0.54588570792334423 -10.675573054186499 -5.920027812097338 26.623756401096621 82.29636780844794
leaf_weight=71 38 59 64 44 56 746 835 278 118 103 58 603 70 31 76 56 55 792 50 46 32 62 394 75 272 174 6112 2272 237 44
leaf_count=71 38 59 64 44 56 746 835 278 118 103 58 603 70 31 76 56 55 792 50 46 32 62 394 75 272 174 6112 2272 237 44
internal_value=-0.21174 -0.827342 28.9394 45.854 -4.01683 5.39953 19.7116 38.9191 -7.51484 10.6713 19.0635 -2.56197 54.0727 47.1339 53.9371 74.5561 50.6866 2.89785 11.8571 69.8524 88.8188 37.5302 3.35635 20.8122 0.372128 13.3302 -8.89342 -4.30786 13.5685 55.8822
internal_weight=13923 13885 1343 833 12542 3397 1206 774 9145 643 336 2191 438 368 324 142 86 1445 653 134 88 182 572 178 510 238 8502 2390 1072 106
internal_count=13923 13885 1343 833 12542 3397 1206 774 9145 643 336 2191 438 368 324 142 86 1445 653 134 88 182 572 178 510 238 8502 2390 1072 106
cat_boundaries=0 1 2 254 255 256 257 258
cat_threshold=138 168 0 0 0 0 0 0 0 0 0 0 0 0 0 0 0 0 0 0 0 0 0 0 0 1048576 0 0 0 0 0 0 0 0 0 0 0 0 0 0 0 0 0 0 1 0 0 0 0 0 0 0 128 0 0 0 0 0 0 0 0 268435456 32768 0 0 0 0 524288 0 0 0 0 0 4096 0 0 0 0 0 0 0 0 0 0 0 0 0 262144 0 0 0 0 0 0 0 0 0 4 0 0 0 0 0 0 0 0 0 0 0 0 0 0 16384 0 0 0 0 0 0 0 0 0 0 0 0 0 0 0 0 0 0 0 0 0 0 0 0 0 0 0 0 0 0 0 0 0 0 0 0 0 0 0 0 0 0 0 0 0 0 0 0 0 0 0 0 0 0 0 0 0 0 0 0 0 0 0 0 0 0 0 0 0 0 0 0 0 0 0 0 0 0 0 0 0 0 0 0 0 0 0 0 0 0 0 0 0 0 0 0 0 1048576 0 0 0 0 0 0 0 0 0 0 0 536870912 0 0 0 0 0 0 0 0 0 0 0 0 0 0 0 0 0 0 0 0 0 0 0 0 0 0 0 0 0 0 536870912 517 1024 1186 8
is_linear=0
shrinkage=0.05


Tree=18
num_leaves=31
num_cat=3
split_feature=1 1 3 2 1 3 1 2 1 0 1 2 2 1 3 1 2 0 2 0 0 0 2 0 0 2 1 1 2 0
split_gain=8.2676e+08 4.95911e+08 2.42502e+08 2.13054e+08 1.66526e+08 1.11694e+08 1.27384e+08 1.71321e+08 8.52648e+07 6.31253e+07 6.52124e+07 6.09046e+07 5.5819e+07 5.54006e+07 3.81092e+07 3.23388e+07 6.22096e+07 8.1559e+07 5.93386e+07 9.33864e+07 5.94374e+07 2.81126e+07 2.57811e+07 2.95702e+07 2.39289e+07 3.74761e+07 2.06688e+07 1.94632e+07 1.8431e+07 2.03622e+07
threshold=47938.30000000001 3258.5000000000005 0 14.500000000000002 9057.0000000000018 1 300.14166666666671 9.5000000000000018 21642.150000000005 6.5000000000000009 1580.5000000000002 7.5000000000000009 17.500000000000004 1811.5000000000002 2 5816.0000000000009 28.500000000000004 15.500000000000002 23.500000000000004 24.500000000000004 18.500000000000004 21.500000000000004 9.5000000000000018 10.500000000000002 5.5000000000000009 6.5000000000000009 1293.0083333333337 9057.0000000000018 23.500000000000004 25.500000000000004
decision_type=2 2 9 2 2 9 2 2 2 2 2 2 2 2 9 2 2 2 2 2 2 2 2 2 2 2 2 2 2 2
left_child=1 5 3 4 22 -1 -7 9 15 11 -11 24 13 -9 27 -5 17 -17 20 21 -19 -20 -3 -24 25 -8 -14 -4 -29 -30
right_child=-2 2 14 8 -6 6 7 12 -10 10 -12 -13 26 -15 -16 16 -18 18 19 -21 -22 -23 23 -25 -26 -27 -28 28 29 -31
leaf_value=-11.702726108253707 196.9608439895342 93.901528134346009 4.3310135233141214 13.123009731753232 182.94542821162457 -9.5286753490487524 42.824925848841673 3.167552691544294 74.867270385677159 40.310304468934255 125.0217077378304 -5.7931539058685306 -8.2998071278900696 26.902855379833706 -9.889079583514242 7.6319058324513804 15.586130490832858 57.061674303274891 44.251132313410444 111.25975785255433 139.39430185045515 -16.54388769361708 17.245188303788506 78.441226883615769 62.414720735242298 -2.0411247749586363 0.91666704837081514 61.900648633895379 -11.198139223299529 37.701058198967758
leaf_weight=3968 52 39 273 437 36 2991 127 1530 87 92 30 139 1478 292 438 88 314 51 32 31 41 44 47 34 61 73 1033 30 37 48
leaf_count=3968 52 39 273 437 36 2991 127 1530 87 92 30 139 1478 292 438 88 314 51 32 31 41 44 47 34 61 73 1033 30 37 48
internal_value=-0.143791 -0.894143 21.4461 34.9235 89.7978 -4.87996 -1.41168 3.58695 27.5515 30.619 61.9881 20.9207 0.324061 6.98412 0.104234 23.5175 31.0411 47.8373 65.4895 39.5937 94.8577 9.29627 60.5725 43.5758 35.1155 26.5201 -4.50939 11.347 28.7995 16.5328
internal_weight=13973 13921 2107 1281 156 11814 7846 4855 1125 522 122 400 4333 1822 826 1038 601 287 199 107 92 76 120 81 261 200 2511 388 115 85
internal_count=13973 13921 2107 1281 156 11814 7846 4855 1125 522 122 400 4333 1822 826 1038 601 287 199 107 92 76 120 81 261 200 2511 388 115 85
cat_boundaries=0 1 2 3
cat_threshold=138 533 1024
is_linear=0
shrinkage=0.05


Tree=19
num_leaves=31
num_cat=6
split_feature=1 2 1 3 1 1 3 1 4 2 3 2 3 4 2 0 0 2 0 0 1 2 0 2 2 1 0 2 1 1
split_gain=4.23618e+08 4.84195e+08 7.88789e+08 1.43301e+08 2.45877e+08 2.27016e+08 1.14354e+08 1.16731e+08 8.69303e+07 1.55586e+08 5.87927e+07 4.5727e+07 4.14108e+07 4.30317e+07 6.36509e+07 3.8291e+07 3.61858e+07 3.24753e+07 3.46561e+07 3.46061e+07 4.23447e+07 2.88913e+07 6.07233e+07 2.78905e+07 2.62518e+07 2.31416e+07 2.22004e+07 3.85008e+07 2.20774e+07 2.84704e+07
threshold=2054.0000000000005 11.500000000000002 8137.5000000000009 0 13188.525000000001 47938.30000000001 1 21642.150000000005 2 5.5000000000000009 3 7.5000000000000009 4 5 14.500000000000002 4.5000000000000009 11.500000000000002 30.500000000000004 28.500000000000004 25.500000000000004 7836.1416666666673 21.500000000000004 13.500000000000002 9.5000000000000018 18.500000000000004 2446.5000000000005 8.5000000000000018 11.500000000000002 17823.500000000004 11013.000000000002
decision_type=2 2 2 9 2 2 9 2 9 2 9 2 9 9 2 2 2 2 2 2 2 2 2 2 2 2 2 2 2 2
left_child=8 2 25 4 21 6 -5 17 9 -1 24 15 13 -12 16 -11 23 19 -19 -8 -21 22 -3 -15 -10 -2 -25 -28 29 -20
right_child=1 3 -4 5 -6 -7 7 -9 10 11 12 -13 -14 14 -16 -17 -18 18 28 20 -22 -23 -24 26 -26 -27 27 -29 -30 -31
leaf_value=81.387049171659683 85.684626702701351 -11.082487252179314 322.37432670593262 -12.101588059179416 163.46880013881585 -121.40816185895136 13.458544585968315 65.466609914486227 48.886953588468685 2.5213894299098425 -10.568045767424456 -3.2544830201861856 -11.045484327860583 20.260577643199401 -5.3515787562624597 54.862947180573371 49.064636780665474 -7.21809728499034 9.6236997726953248 10.857554241021475 89.559328707526717 6.9236732152428964 70.703640524098574 -3.9076463488815523 2.440034436312589 38.853759367365235 39.664721507410853 0.98807278803416665 -18.112693873814177 52.25968063104721
leaf_weight=71 33 33 30 528 38 33 1372 103 69 69 1921 498 3760 274 3085 70 51 397 105 35 33 100 70 561 54 141 92 209 34 62
leaf_count=71 33 33 30 528 38 33 1372 103 69 69 1921 498 3760 274 3085 70 51 397 105 35 33 100 70 561 54 141 92 209 34 62
internal_value=-0.56545 15.5718 89.8737 10.3926 46.4989 6.95838 8.61647 13.7215 -5.27564 11.5544 -6.4643 3.83664 -6.90102 -4.36963 -1.56239 29.084 8.26872 11.1428 1.34512 15.2078 49.7955 26.1885 44.6457 6.39567 26.5395 48.1743 1.97012 12.9017 18.2105 25.6695
internal_weight=13931 3147 204 2943 241 2702 2669 2141 10784 708 10076 637 9953 6193 4272 139 1187 2038 598 1440 68 203 103 1136 123 174 862 301 201 167
internal_count=13931 3147 204 2943 241 2702 2669 2141 10784 708 10076 637 9953 6193 4272 139 1187 2038 598 1440 68 203 103 1136 123 174 862 301 201 167
cat_boundaries=0 1 2 215 216 217 476
cat_threshold=128 517 0 0 0 0 0 0 0 0 0 0 0 0 0 0 0 0 0 0 0 0 0 0 0 1048576 0 0 0 0 0 0 0 0 0 0 0 0 0 0 0 0 0 0 1 0 0 0 0 67108864 0 0 128 0 0 0 0 0 0 0 0 268435456 32768 0 0 0 0 524288 0 0 0 0 0 4096 0 0 0 0 0 0 0 0 0 0 0 0 2147483648 262144 0 0 0 0 16 0 0 0 0 4 0 0 0 0 0 0 0 0 0 0 0 0 0 0 16384 0 0 0 0 0 0 0 0 0 0 0 0 0 0 0 0 0 0 0 0 0 0 0 0 0 0 0 0 0 0 0 0 0 0 0 0 0 0 0 0 0 0 0 0 0 0 0 0 0 0 0 0 0 0 0 0 0 0 0 0 0 0 0 0 0 0 0 0 0 0 0 0 0 0 0 0 0 0 0 0 0 0 0 0 0 0 0 0 0 0 0 0 0 0 0 0 0 1048576 0 0 0 8388608 128 1130 0 0 0 0 0 0 16777216 0 0 20971520 0 0 0 0 0 0 0 8388608 0 0 0 0 0 0 0 0 0 0 0 0 0 0 0 0 0 0 4194304 0 0 2097152 0 0 0 0 0 0 0 0 0 0 0 0 0 0 0 0 0 0 0 0 0 0 0 0 0 0 0 0 0 0 0 0 0 0 1 0 0 0 0 0 0 0 0 0 0 0 0 0 0 0 0 0 1073741824 0 0 0 0 0 0 0 0 512 0 0 64 2097152 0 0 1024 0 0 0 0 0 0 0 0 0 0 0 0 0 0 0 0 0 67108872 0 0 0 0 0 0 32 0 16777216 0 0 0 0 0 268435456 0 0 0 0 0 64 0 0 0 0 0 0 0 0 0 0 0 1073741824 0 0 0 0 0 0 0 0 0 0 0 131072 0 0 0 0 0 0 0 0 0 0 0 0 131072 0 0 0 0 268435456 0 0 0 0 0 0 0 0 0 0 0 0 0 0 0 0 0 0 0 0 0 0 0 0 0 0 0 0 0 0 0 0 0 0 0 0 0 0 0 0 0 0 0 0 0 0 0 0 0 0 0 0 0 0 0 0 0 0 0 0 0 0 0 0 0 0 0 0 4096
is_linear=0
shrinkage=0.05


Tree=20
num_leaves=31
num_cat=6
split_feature=1 1 3 2 1 3 1 4 2 2 2 0 3 1 0 1 3 4 2 0 0 2 1 2 0 1 1 2 0 0
split_gain=6.4252e+08 4.2878e+08 2.37202e+08 2.39537e+08 2.23642e+08 1.15118e+08 9.24979e+07 8.32582e+07 1.17149e+08 6.81242e+07 5.52311e+07 1.08377e+08 4.80499e+07 5.60552e+07 4.6062e+07 3.85302e+07 3.66771e+07 4.15387e+07 1.04681e+08 3.62252e+07 3.00704e+07 2.84705e+07 4.31681e+07 2.58526e+07 6.24403e+07 2.46456e+07 4.08954e+07 2.4461e+07 2.64349e+07 2.28371e+07
threshold=47938.30000000001 1641.1750000000002 0 14.500000000000002 9057.0000000000018 1 7438.5000000000009 2 6.5000000000000009 8.5000000000000018 28.500000000000004 17.500000000000004 3 4522.5000000000009 30.500000000000004 315.24166666666673 4 5 10.500000000000002 6.5000000000000009 13.500000000000002 17.500000000000004 4246.5000000000009 17.500000000000004 14.500000000000002 2594.0000000000005 2241.5000000000005 9.5000000000000018 8.5000000000000018 37.500000000000007
decision_type=2 2 9 2 2 9 2 9 2 2 2 2 9 2 2 2 9 9 2 2 2 2 2 2 2 2 2 2 2 2
left_child=1 7 -3 4 9 6 21 8 15 -4 11 20 -11 25 -12 -1 -9 -18 19 -19 -8 22 -5 24 -7 26 -14 -21 -29 -25
right_child=-2 2 3 5 -6 23 10 16 -10 12 14 -13 13 -15 -16 -17 17 18 -20 27 -22 -23 -24 29 -26 -27 -28 28 -30 -31
leaf_value=17.441538082024991 181.12737725705517 -12.091813075193885 88.108934837663682 21.397409494106586 168.46657665252687 4.4110738216820407 -12.289002064558176 -10.515391347264694 2.1521806202001041 5.4502183825470683 7.1587076526561759 93.774702862699826 29.742093501985075 109.00266449591693 53.60572540537342 79.940904885369378 -10.030654669537912 8.4061032913258824 -4.0516383009976407 55.827742681097483 44.669405397875558 12.166580121448559 89.047485597672008 -0.73845620720952132 78.224041938781738 13.101272875443101 99.928839504718781 3.3219970347086587 54.239807520157257 40.93121391745175
leaf_weight=38 48 673 70 103 39 117 38 3625 485 118 130 119 63 33 90 73 2008 243 3677 93 57 759 30 998 37 63 31 74 38 33
leaf_count=38 48 673 70 103 39 117 38 3625 485 118 130 119 63 33 90 73 2008 243 3677 93 57 759 30 998 37 63 31 74 38 33
internal_value=0.387384 -0.247228 14.612 20.7224 55.8451 14.9521 24.9909 -5.41599 12.5895 43.8116 44.0929 62.1606 33.4915 47.989 26.3163 58.8915 -6.52312 -4.14883 -1.26657 21.522 21.9954 15.9377 37.2075 3.46736 22.5356 37.593 53.697 36.953 20.9248 0.633666
internal_weight=14003 13955 3601 2928 417 2511 1326 10354 596 378 434 214 308 190 220 111 9758 6133 4125 448 95 892 133 1185 154 157 94 205 112 1031
internal_count=14003 13955 3601 2928 417 2511 1326 10354 596 378 434 214 308 190 220 111 9758 6133 4125 448 95 892 133 1185 154 157 94 205 112 1031
cat_boundaries=0 1 2 211 212 213 472
cat_threshold=517 136 0 0 0 0 0 0 0 0 0 0 0 0 0 0 0 0 0 0 0 0 0 0 0 0 0 0 0 0 0 0 0 0 0 0 0 0 0 0 0 0 0 0 0 0 0 0 0 0 0 0 0 0 0 0 0 0 0 0 0 268435456 32768 0 67108864 0 0 524288 0 0 0 0 0 4096 0 0 0 0 0 0 0 0 0 0 0 0 0 262144 0 0 0 0 16 0 0 0 0 4 0 0 0 0 0 0 0 0 0 0 0 0 0 0 16384 0 0 0 0 0 0 0 0 0 0 0 0 0 0 0 0 0 0 0 0 0 0 0 0 0 0 0 0 0 0 0 0 0 0 0 0 0 0 0 0 0 0 0 0 0 0 0 0 0 0 1 0 0 0 0 0 0 0 0 0 0 0 0 0 0 0 0 0 0 0 0 0 0 0 0 0 0 0 0 0 0 0 0 0 0 0 0 0 0 0 0 0 0 0 0 0 0 1048576 8 533 0 0 0 0 0 0 16777216 0 0 20971520 0 0 0 0 0 0 0 8388608 0 0 0 0 0 0 0 0 0 0 0 0 0 0 0 0 0 0 4194304 0 0 2097152 0 0 1 0 16777216 0 0 0 0 0 0 0 0 0 0 0 0 0 0 0 0 0 0 0 0 0 0 0 0 0 0 0 0 0 1 0 0 0 0 0 0 0 0 0 0 0 0 0 0 0 0 0 0 0 0 0 0 0 0 0 0 512 0 0 64 2097152 0 0 1024 0 0 0 0 0 0 0 0 0 0 0 0 0 0 0 0 0 67108872 0 0 0 0 0 0 32 0 16777216 0 0 0 0 0 0 0 0 0 0 0 64 0 0 2097152 0 0 0 0 0 0 0 0 1073741824 0 0 0 0 0 0 0 0 0 0 0 131072 0 0 0 0 0 0 0 0 0 0 0 0 131072 0 0 0 0 268435456 0 0 0 0 0 0 0 0 0 0 0 0 0 0 0 0 0 0 0 0 0 0 0 0 0 0 0 0 0 0 0 0 0 0 0 0 0 0 0 0 512 0 0 0 0 0 0 0 0 0 0 0 0 0 0 0 0 0 0 0 0 0 0 0 0 0 0 0 4096
is_linear=0
shrinkage=0.05


Tree=21
num_leaves=31
num_cat=3
split_feature=1 2 3 2 3 1 1 3 1 2 2 2 2 0 2 0 1 0 1 2 2 1 2 1 0 2 0 2 2 1
split_gain=5.59686e+08 1.92118e+09 2.27639e+08 2.10582e+08 1.80342e+08 1.68082e+08 1.60308e+08 1.21842e+08 1.19468e+08 1.47791e+08 1.11947e+08 1.37316e+08 7.47492e+07 6.66034e+07 8.37854e+07 7.39466e+07 5.22057e+07 4.98607e+07 4.78082e+07 6.23387e+07 4.27886e+07 4.24144e+07 4.22808e+07 4.11617e+07 3.64554e+07 4.16195e+07 3.76073e+07 4.57328e+07 2.42902e+07 2.3001e+07
threshold=8137.5000000000009 11.500000000000002 0 30.500000000000004 1 33784.483333333344 13188.525000000001 2 246.15000000000003 11.500000000000002 17.500000000000004 26.500000000000004 8.5000000000000018 8.5000000000000018 5.5000000000000009 3.5000000000000004 4155.0000000000009 13.500000000000002 1967.0000000000002 17.500000000000004 19.500000000000004 21642.150000000005 24.500000000000004 5533.5083333333341 4.5000000000000009 8.5000000000000018 7.5000000000000009 9.5000000000000018 23.500000000000004 2350.0000000000005
decision_type=2 2 9 2 9 2 2 9 2 2 2 2 2 2 2 2 2 2 2 2 2 2 2 2 2 2 2 2 2 2
left_child=2 -2 12 4 6 21 17 8 -4 13 -8 -12 -1 14 15 -10 -14 -3 -11 23 -18 -5 -19 -20 -16 -26 -27 -28 -6 -15
right_child=1 3 7 5 28 -7 10 -9 9 18 11 -13 16 29 24 -17 20 22 19 -21 -22 -23 -24 -25 25 26 27 -29 -30 -31
leaf_value=106.96530585818822 413.62398681640627 -5.8670922300550679 -8.4169405587393236 5.1811365799532849 11.090789026453876 -87.014226212104177 195.79247383926855 -10.087334059644888 -2.2361321333381867 -2.8956655861621878 41.484537088303341 167.5062704198501 19.417045591505733 42.675363675797925 -7.3272938737821818 85.717013023217532 109.02980016820571 89.668156860081055 20.821799293334543 2.6493732872584186 29.121097984910012 50.740120480060583 26.102070835658481 77.699210103352868 35.281117350230282 -2.2166388863098248 63.856923488148475 5.6148347945440387 -38.29530774874565 94.039564858713462
leaf_weight=35 32 44 2706 346 68 47 32 4203 35 3269 62 33 240 88 200 74 33 51 290 1268 35 59 55 35 210 288 56 83 38 30
leaf_count=35 32 44 2706 346 68 47 32 4203 35 3269 62 33 240 88 200 74 33 51 290 1268 35 59 55 35 210 288 56 83 38 30
internal_value=0.53138 39.4208 -2.03001 24.6025 51.8283 1.46927 71.6331 -3.11686 0.285654 4.26077 115.39 86.5494 37.53 21.1305 16.6744 57.7116 30.5336 38.8109 0.565401 7.66523 68.9184 11.9268 57.2379 27.1666 11.2678 17.1085 8.10954 29.3678 -6.22438 56.4146
internal_weight=14045 867 13178 835 383 452 277 12835 8632 5926 127 95 343 1064 946 109 308 150 4862 1593 68 405 106 325 837 637 427 139 106 118
internal_count=14045 867 13178 835 383 452 277 12835 8632 5926 127 95 343 1064 946 109 308 150 4862 1593 68 405 106 325 837 637 427 139 106 118
cat_boundaries=0 1 2 3
cat_threshold=128 138 1130
is_linear=0
shrinkage=0.05


Tree=22
num_leaves=31
num_cat=4
split_feature=3 1 2 1 1 2 3 2 1 1 3 2 0 1 1 0 2 3 2 0 1 0 2 0 0 2 0 2 1 2
split_gain=3.93311e+08 1.88063e+08 4.73887e+08 3.35788e+08 1.07614e+08 9.94434e+07 8.55114e+07 9.77822e+07 1.2095e+08 1.00032e+08 7.5309e+07 5.83542e+07 5.58552e+07 5.54604e+07 5.4128e+07 4.90189e+07 6.43796e+07 5.14912e+07 4.8471e+07 5.60276e+07 4.67467e+07 4.36895e+07 4.76969e+07 5.20147e+07 3.37852e+07 4.179e+07 3.31841e+07 4.60417e+07 3.27433e+07 3.18647e+07
threshold=0 4522.5000000000009 11.500000000000002 47938.30000000001 13188.525000000001 12.500000000000002 1 11.500000000000002 6.5000000000000009 300.14166666666671 2 16.500000000000004 11.500000000000002 1342.5000000000002 1935.5000000000002 16.500000000000004 23.500000000000004 3 8.5000000000000018 7.5000000000000009 9057.0000000000018 5.5000000000000009 6.5000000000000009 3.5000000000000004 30.500000000000004 29.500000000000004 12.500000000000002 20.500000000000004 3774.2333333333336 17.500000000000004
decision_type=9 2 2 2 2 2 9 2 2 2 9 2 2 2 2 2 2 9 2 2 2 2 2 2 2 2 2 2 2 2
left_child=4 6 -3 10 5 14 7 8 -2 -10 -4 12 -12 -9 -1 -13 20 24 21 -20 -17 22 23 -11 25 -18 -7 28 -28 -15
right_child=1 2 3 -5 -6 26 -8 13 9 18 11 15 -14 29 -16 16 17 -19 19 -21 -22 -23 -24 -25 -26 -27 27 -29 -30 -31
leaf_value=40.637319831359086 101.69279932839531 159.22680014870386 -8.6999203235288203 -153.126972862982 125.55073309177305 -12.611811394492786 -9.5259717568916003 -6.4239096126638078 -4.6387356219148153 -17.64332425671239 14.044233184059463 -6.4605893712731746 87.734703706872878 15.615325543827481 121.71840658382494 30.052222968935968 39.453164512927714 -1.0018306788093492 -3.4489679523199706 28.688442385736209 93.653590571626708 59.435748086656844 -3.388760399599688 55.787697165945303 52.919625585906367 0.77568964926820061 39.198357746714635 12.384434527020122 100.46317296181957 0.011897937119007112
leaf_weight=38 34 54 305 30 40 47 4065 4580 842 30 47 200 57 449 48 79 129 296 326 231 46 111 108 114 97 151 83 128 30 1199
leaf_count=38 34 54 305 30 40 47 4065 4580 842 30 47 200 57 449 48 79 129 296 326 231 46 111 108 114 97 151 83 128 30 1199
internal_value=-0.0806837 -1.5617 15.1855 9.66573 47.2844 39.8621 -3.6296 -0.628996 9.64539 7.81255 13.2431 19.2232 54.8832 -3.59396 86.7708 15.6483 21.1906 15.0228 19.2008 9.90664 54.0151 33.3958 21.7362 40.4734 26.889 18.6719 25.6029 33.0769 56.2019 4.26997
internal_weight=13994 13580 1491 1437 414 374 12089 8024 1796 1762 1407 1102 104 6228 86 998 798 673 920 557 125 363 252 144 377 280 288 241 113 1648
internal_count=13994 13580 1491 1437 414 374 12089 8024 1796 1762 1407 1102 104 6228 86 998 798 673 920 557 125 363 252 144 377 280 288 241 113 1648
cat_boundaries=0 1 2 3 4
cat_threshold=128 1130 581 8
is_linear=0
shrinkage=0.05


Tree=23
num_leaves=31
num_cat=4
split_feature=1 3 1 2 1 1 2 3 2 0 1 1 2 1 3 0 2 1 3 2 0 0 2 0 2 1 2 0 0 0
split_gain=6.2262e+08 2.64694e+08 1.57059e+08 1.58064e+08 1.10436e+08 8.5512e+07 8.03237e+07 6.62182e+07 9.13469e+07 1.65985e+08 6.7703e+07 5.98238e+07 4.74056e+07 4.63659e+07 4.31991e+07 4.02443e+07 4.33454e+07 4.10808e+07 3.35599e+07 5.21445e+07 3.7399e+07 2.75181e+07 3.84904e+07 2.66488e+07 3.22895e+07 2.61287e+07 2.58078e+07 3.53585e+07 2.3866e+07 2.26482e+07
threshold=47938.30000000001 0 3963.5000000000005 16.500000000000004 12433.741666666669 3569.5000000000005 25.500000000000004 1 8.5000000000000018 6.5000000000000009 315.24166666666673 574.50000000000011 17.500000000000004 9465.6166666666686 2 30.500000000000004 30.500000000000004 14251.500000000002 3 5.5000000000000009 5.5000000000000009 16.500000000000004 21.500000000000004 12.500000000000002 14.500000000000002 6764.0000000000009 13.500000000000002 7.5000000000000009 25.500000000000004 7.5000000000000009
decision_type=2 9 2 2 2 2 2 9 2 2 2 2 2 2 9 2 2 2 9 2 2 2 2 2 2 2 2 2 2 2
left_child=1 5 7 4 29 -1 13 8 9 10 -3 -10 23 -7 -5 16 21 -17 -12 -20 -21 -16 25 26 -25 -23 27 -13 -24 -4
right_child=-2 2 3 14 -6 6 -8 -9 11 -11 18 12 -14 -15 15 17 -18 -19 19 20 -22 22 28 24 -26 -27 -28 -29 -30 -31
leaf_value=19.87496801338601 181.74292568450278 -2.6339733506141068 0.63045677608913842 -5.4536843317031867 136.5507884979248 68.935430692371582 22.247077440178913 -9.074136181507221 -7.3728288599329561 118.44764738340638 3.301038892865181 -3.4084253973726719 -2.9658043383625654 142.43710576837714 0.7836504789720099 12.94067226515876 -6.6593969709684764 69.625064503944529 83.966463104284045 10.126674190414287 67.520161115206207 26.661146957809862 10.049367442448935 71.525446737966234 16.922051357220763 87.568093356570685 -2.8866780089815052 21.49281316853417 49.667991310617197 45.179797990552842
leaf_weight=258 46 440 35 489 32 75 68 3958 3667 36 109 223 2058 32 165 71 290 58 52 106 38 36 224 30 225 36 489 393 45 154
leaf_count=258 46 440 35 489 32 75 68 3958 3667 36 109 223 2058 32 165 71 290 58 52 106 38 36 224 30 225 36 489 393 45 154
internal_value=0.0662745 -0.548342 -1.79958 12.7195 51.9448 37.4373 65.1964 -3.80967 -1.14689 15.0693 9.92172 -2.93794 1.82079 92.0326 6.55638 12.8249 8.73842 38.7662 27.9843 39.4544 25.6334 17.559 25.6501 9.0609 23.6003 57.897 5.68735 12.4873 16.8364 36.9767
internal_weight=13938 13892 13459 1635 221 433 175 11824 7866 781 745 7085 3418 107 1414 925 796 129 305 196 144 506 341 1360 255 72 1105 616 269 189
internal_count=13938 13892 13459 1635 221 433 175 11824 7866 781 745 7085 3418 107 1414 925 796 129 305 196 144 506 341 1360 255 72 1105 616 269 189
cat_boundaries=0 1 2 3 4
cat_threshold=128 1130 519 1032
is_linear=0
shrinkage=0.05


Tree=24
num_leaves=31
num_cat=4
split_feature=1 2 3 1 0 3 4 1 2 0 1 2 1 2 3 0 2 0 0 0 2 2 1 2 1 1 1 0 0 0
split_gain=2.72896e+08 1.32916e+09 1.59269e+08 1.16048e+08 1.18889e+08 9.81339e+07 9.67104e+07 1.59113e+08 1.24244e+08 7.73154e+07 7.36503e+07 6.13643e+07 6.35329e+07 4.47582e+07 3.92953e+07 3.54841e+07 2.86464e+07 3.19749e+07 2.81111e+07 5.02672e+07 4.74644e+07 6.84797e+07 2.504e+07 2.25893e+07 3.01429e+07 2.13452e+07 1.87749e+07 1.844e+07 1.79558e+07 1.62233e+07
threshold=12433.741666666669 14.500000000000002 0 33784.483333333344 29.500000000000004 1 2 18.500000000000004 8.5000000000000018 6.5000000000000009 2397.5000000000005 20.500000000000004 5356.8500000000013 5.5000000000000009 3 7.5000000000000009 13.500000000000002 9.5000000000000018 17.500000000000004 23.500000000000004 34.500000000000007 43.000000000000007 21642.150000000005 18.500000000000004 597.50000000000011 315.24166666666673 15369.000000000002 14.500000000000002 15.500000000000002 4.5000000000000009
decision_type=2 2 9 2 2 9 9 2 2 2 2 2 2 2 9 2 2 2 2 2 2 2 2 2 2 2 2 2 2 2
left_child=2 -2 11 14 -5 6 -4 -8 9 13 23 12 15 25 18 -1 17 -12 -3 -20 -21 -22 26 24 -10 -9 -16 -17 -26 -15
right_child=1 3 5 4 -6 -7 7 8 10 -11 16 -13 -14 29 22 27 -18 -19 19 20 21 -23 -24 -25 28 -27 -28 -29 -30 -31
leaf_value=78.654619119106201 320.44482835970427 8.3473914990058322 -9.1837918889939072 25.921333903651085 -106.52047378138494 -8.2108602460478508 116.67001112661053 20.898891890389578 -4.8872045064382714 98.281895888479141 9.8485019636154192 4.2090975387253033 109.87629696306061 -1.3742318864596093 21.773253000907179 12.239497787881467 8.4480958988418671 56.771663295521456 107.24183434247971 -1.3872685532569886 116.99858986639208 11.490381526947022 42.545963588513828 -5.3980553447722288 5.601677510965299 71.61873165410141 -14.564070493203623 46.691906838189993 37.438187662933181 23.56569765842691
leaf_weight=38 37 51 1878 30 37 4717 30 34 987 37 79 136 33 117 52 104 1461 67 31 49 30 31 37 2275 1223 57 107 62 45 146
leaf_count=38 37 51 1878 30 37 4717 30 34 987 37 79 136 33 117 52 104 1461 67 31 49 30 31 37 2275 1223 57 107 62 45 146
internal_value=-0.188206 36.3521 -1.51993 12.598 -47.7091 -2.44354 0.787758 3.65389 3.12232 30.4134 1.37888 30.2258 46.3448 23.0629 23.1077 35.5818 10.5718 31.6215 38.3797 51.81 35.3629 64.4298 5.78652 -1.88389 1.66226 53.1016 -2.61836 25.3098 6.76013 12.5076
internal_weight=14018 492 13526 455 67 13153 8436 6558 6528 391 6137 373 237 354 388 204 1607 146 192 141 110 61 196 4530 2255 91 159 166 1268 263
internal_count=14018 492 13526 455 67 13153 8436 6558 6528 391 6137 373 237 354 388 204 1607 146 192 141 110 61 196 4530 2255 91 159 166 1268 263
cat_boundaries=0 1 2 192 193
cat_threshold=128 1066 0 0 0 0 0 0 16777216 0 0 20971520 0 0 0 0 0 0 0 8388608 0 0 0 0 0 0 0 0 0 0 0 0 0 0 0 0 0 0 4194304 0 0 2097152 0 0 0 0 0 0 0 0 0 0 0 0 0 0 0 0 0 0 0 0 0 0 0 0 0 0 0 0 0 0 0 0 0 0 1 0 0 0 0 4 0 0 0 0 0 0 0 0 0 0 0 0 0 0 0 4 0 0 0 0 0 512 0 0 64 2097152 0 0 1024 0 0 0 0 0 0 0 0 0 0 0 0 0 0 0 0 0 67108872 0 0 0 0 0 0 32 0 16777216 0 0 0 0 0 268435456 0 0 0 0 0 64 8192 0 0 0 0 0 0 0 0 0 0 0 0 0 0 0 0 0 16384 0 0 0 0 0 0 0 0 0 0 0 0 0 0 0 0 0 131072 0 0 0 0 268435456 136
is_linear=0
shrinkage=0.05


Tree=25
num_leaves=31
num_cat=4
split_feature=1 2 1 3 2 3 2 3 1 2 0 1 0 0 2 1 3 1 2 0 2 0 0 0 1 0 2 0 0 2
split_gain=3.66336e+08 1.30303e+09 4.10313e+08 1.34957e+08 1.1059e+08 8.90405e+07 7.61218e+07 7.60669e+07 8.21408e+07 1.19961e+08 7.34458e+07 5.23671e+07 1.03509e+08 9.49693e+07 8.23166e+07 3.81183e+07 3.63487e+07 3.63203e+07 5.37306e+07 3.53205e+07 3.35718e+07 3.86645e+07 3.21879e+07 3.07104e+07 3.23646e+07 2.94511e+07 2.73133e+07 6.66496e+07 3.63267e+07 4.71087e+07
threshold=7438.5000000000009 11.500000000000002 47938.30000000001 0 30.500000000000004 1 12.500000000000002 2 300.14166666666671 8.5000000000000018 6.5000000000000009 14251.500000000002 15.500000000000002 17.500000000000004 24.500000000000004 1935.5000000000002 3 2553.5000000000005 17.500000000000004 34.500000000000007 5.5000000000000009 4.5000000000000009 24.500000000000004 12.500000000000002 3666.8333333333335 39.500000000000007 15.500000000000002 12.500000000000002 7.5000000000000009 9.5000000000000018
decision_type=2 2 2 9 2 9 2 9 2 2 2 2 2 2 2 2 9 2 2 2 2 2 2 2 2 2 2 2 2 2
left_child=3 -2 4 6 5 11 15 8 -5 10 16 13 -13 -3 -15 -1 20 26 -19 -6 -10 -22 -16 -8 -25 -21 27 28 -11 -30
right_child=1 2 -4 7 19 -7 23 -9 9 17 -12 12 -14 14 22 -17 -18 18 -20 25 21 -23 -24 24 -26 -27 -28 -29 29 -31
leaf_value=34.645372584131032 313.26810733110483 5.0528244190001761 -152.38942727481617 -6.7312305061467983 -1.0014136988590852 4.2301610487744332 -20.160135315293854 -8.3081442181126199 72.738199564203782 -6.6087538654030418 104.83867069367439 156.94936086055304 49.37744345068932 132.27201866149903 6.0892477961948943 107.13631419205086 6.6740084768609806 28.488103854137918 3.454061161207806 52.814405716711022 3.6193235124860497 68.821216684229242 73.249790015071639 13.152827378352484 58.78357794239836 4.5034792790647415 -3.6551104006589976 56.207375001907351 62.51171592619361 7.1680834367871284
leaf_weight=35 38 88 33 3013 330 122 45 4167 59 569 30 35 63 39 34 40 177 275 961 66 69 33 37 149 52 60 2675 60 40 627
leaf_count=35 38 88 33 3013 330 122 45 4167 59 569 30 35 63 39 34 40 177 275 961 66 69 33 37 149 52 60 2675 60 40 627
internal_value=0.215565 30.2623 18.0735 -1.95806 24.6765 43.2223 29.5208 -2.77349 -0.080824 3.5138 31.0631 57.1581 88.9933 43.9055 74.6621 74.2082 24.225 1.56118 9.04246 7.61884 40.451 25.1774 41.6197 16.8465 25.1904 30.0258 -0.769103 5.18597 2.66576 10.5757
internal_weight=14021 945 907 13076 874 418 321 12755 8588 5575 368 296 98 198 110 75 338 5207 1236 456 161 102 71 246 201 126 3971 1296 1236 667
internal_count=14021 945 907 13076 874 418 321 12755 8588 5575 368 296 98 198 110 75 338 5207 1236 456 161 102 71 246 201 126 3971 1296 1236 667
cat_boundaries=0 1 2 3 4
cat_threshold=128 138 1130 32
is_linear=0
shrinkage=0.05


Tree=26
num_leaves=31
num_cat=3
split_feature=1 3 3 1 1 2 1 2 0 2 0 2 0 1 0 2 2 0 0 2 1 1 0 2 3 1 2 2 0 1
split_gain=7.38273e+08 1.89173e+08 9.7767e+07 1.12739e+08 8.1249e+07 9.87062e+07 5.82427e+07 1.22954e+08 5.37478e+07 7.9309e+07 4.56274e+07 3.5875e+07 1.09945e+08 3.09644e+07 2.58548e+07 3.62447e+07 2.86469e+07 2.1031e+07 2.04162e+07 1.64286e+07 6.29801e+07 6.84923e+07 5.04372e+07 2.72119e+07 2.16529e+07 1.82304e+07 1.81947e+07 4.91938e+07 2.279e+07 1.53094e+07
threshold=47938.30000000001 0 1 21642.150000000005 315.24166666666673 6.5000000000000009 3569.5000000000005 14.500000000000002 15.500000000000002 21.500000000000004 3.5000000000000004 11.500000000000002 9.5000000000000018 1450.5000000000002 7.5000000000000009 10.500000000000002 8.5000000000000018 30.500000000000004 6.5000000000000009 23.500000000000004 9865.3750000000018 8137.5000000000009 13.500000000000002 19.500000000000004 2 3963.5000000000005 17.500000000000004 15.500000000000002 17.500000000000004 574.50000000000011
decision_type=2 9 9 2 2 2 2 2 2 2 2 2 2 2 2 2 2 2 2 2 2 2 2 2 9 2 2 2 2 2
left_child=1 6 -3 4 -4 10 -1 -8 -9 -10 -6 12 14 -13 16 -16 18 -5 -7 20 21 25 -22 -24 -21 -15 27 -27 -28 -12
right_child=-2 2 3 17 5 11 7 8 9 -11 29 13 -14 19 15 -17 -18 -19 -20 24 22 -23 23 -25 -26 26 28 -29 -30 -31
leaf_value=16.371620750236513 199.78563663648524 -8.1208129889296075 -6.2095119214184535 32.341255625363054 -9.7234872601248998 8.6293767289385777 142.84020174741747 -23.625302755832674 113.00880774361747 23.029340907826143 73.993184567965002 -2.7234770819244059 84.359219253540047 6.4579950262051558 37.059617104563685 -6.165305851601266 -7.5409523479525156 79.094454464382594 48.157684440612798 7.9536426314775186 -75.25845671988823 76.754321832060825 31.197237551212311 -33.514532511162038 -4.9941629013176581 14.599447206769671 -2.8257890220082138 90.703920542809271 33.776770564488004 37.362368250701387
leaf_weight=249 45 4296 3059 57 32 182 31 31 34 84 64 2526 49 840 142 73 322 44 39 598 36 39 31 32 677 69 108 30 69 58
leaf_count=249 45 4296 3059 57 32 182 31 31 34 84 64 2526 49 840 142 73 322 44 39 598 36 39 31 32 677 69 108 30 69 58
internal_value=-0.192356 -0.854045 -1.90562 1.01043 0.423951 3.79739 31.4104 53.7441 34.3786 49.6874 43.181 2.75556 12.5384 1.19162 7.79058 22.4227 1.96646 53.2847 15.7905 5.1016 9.16276 12.4494 -28.9223 -1.68231 1.10328 10.1355 21.2641 38.3378 11.5526 57.0239
internal_weight=13946 13901 13472 9176 9075 6016 429 180 149 118 154 5862 807 5055 758 215 543 101 221 2529 1254 1155 99 63 1275 1116 276 99 177 122
internal_count=13946 13901 13472 9176 9075 6016 429 180 149 118 154 5862 807 5055 758 215 543 101 221 2529 1254 1155 99 63 1275 1116 276 99 177 122
cat_boundaries=0 1 2 3
cat_threshold=128 533 8
is_linear=0
shrinkage=0.05


Tree=27
num_leaves=31
num_cat=5
split_feature=1 1 3 4 2 3 2 1 2 1 1 0 1 0 2 1 1 2 2 4 1 1 2 1 1 2 0 3 2 0
split_gain=1.26797e+09 1.86572e+08 8.19258e+07 9.28692e+07 1.86891e+08 7.96804e+07 8.13541e+07 5.38917e+07 5.68955e+07 5.40582e+07 4.60017e+07 3.97197e+07 3.5502e+07 3.19011e+07 7.971e+07 9.95979e+07 1.47712e+08 6.29796e+07 2.9479e+07 3.35e+07 3.4171e+07 2.69749e+07 2.58874e+07 2.58331e+07 2.58219e+07 2.25627e+07 3.80568e+07 2.1507e+07 1.85184e+07 2.71418e+07
threshold=47938.30000000001 8455.0000000000018 0 1 9.5000000000000018 2 30.500000000000004 1293.0083333333337 21.500000000000004 5222.0000000000009 1056.5000000000002 17.500000000000004 18.500000000000004 22.500000000000004 22.500000000000004 17823.500000000004 10462.000000000002 16.500000000000004 5.5000000000000009 3 307.44166666666672 3666.8333333333335 8.5000000000000018 21642.150000000005 7008.5000000000009 17.500000000000004 15.500000000000002 4 16.500000000000004 12.500000000000002
decision_type=2 2 9 9 2 9 2 2 2 2 2 2 2 2 2 2 2 2 2 9 2 2 2 2 2 2 2 9 2 2
left_child=1 2 -1 -4 10 6 13 12 9 11 18 25 -6 14 15 16 -3 -18 -5 -20 -21 22 -12 -8 -11 26 -9 -7 29 -14
right_child=-2 5 3 4 7 27 23 8 -10 24 21 -13 28 -15 -16 -17 17 -19 19 20 -22 -23 -24 -25 -26 -27 -28 -29 -30 -31
leaf_value=-7.4890245941705205 262.69631195411733 -18.852889145745173 -8.1783938343795377 49.208467997954443 50.433532468734256 14.488636363546053 6.0479000870469974 9.9376474950794886 -0.81847971459067781 55.492021858578646 77.71469096378847 36.599767450207757 0.037078538780692241 22.851917261373803 125.5677407375602 -31.49956014752388 153.66248410542806 65.875113286105076 -5.0549791159695143 55.849396830134928 14.614255342846029 10.071486574060778 33.72397816544872 43.488819216118486 13.396657580342788 -2.0355096439334832 65.047390492757174 -12.748196465838447 -6.101346742271553 39.549983288447066
leaf_weight=4116 45 35 2096 77 30 133 190 638 1348 104 87 125 1271 60 42 31 35 54 135 71 170 33 58 60 57 427 32 135 2214 44
leaf_count=4116 45 35 2096 77 30 133 190 638 1348 104 87 125 1271 60 42 31 35 54 135 71 170 33 58 60 57 427 32 135 2214 44
internal_value=0.619441 -0.247347 -1.65487 1.01596 3.809 23.5757 34.8835 1.21006 6.49218 13.6133 29.7333 10.0058 -2.84386 55.2778 64.9884 47.8737 67.8102 101.722 21.1904 15.3373 25.8738 51.2348 60.4699 15.1712 40.7634 6.94492 12.6628 0.806907 -3.31093 1.38823
internal_weight=13953 13908 13133 9017 6921 775 507 6290 2731 1383 631 1222 3559 257 197 155 124 89 453 376 241 178 145 250 161 1097 670 268 3529 1315
internal_count=13953 13908 13133 9017 6921 775 507 6290 2731 1383 631 1222 3559 257 197 155 124 89 453 376 241 178 145 250 161 1097 670 268 3529 1315
cat_boundaries=0 1 264 265 516 517
cat_threshold=533 0 0 0 0 0 0 16777216 0 0 20971520 0 0 0 0 0 0 0 8388608 0 0 0 0 0 1048576 0 0 0 0 0 0 0 0 0 0 0 0 4194304 0 0 2097152 0 0 0 0 16777216 0 0 0 0 0 0 0 0 0 2 0 0 0 0 0 0 0 0 0 0 0 0 0 0 0 0 0 0 0 1 0 0 0 0 0 0 0 0 0 0 0 0 0 0 0 0 0 1073741824 0 0 4 0 0 0 0 0 512 0 0 64 2097152 0 0 1024 0 0 0 0 0 0 0 0 0 0 0 0 0 0 0 0 0 67108872 0 0 0 0 0 0 32 0 16777216 0 0 0 0 0 268435456 0 0 0 0 0 64 0 0 2097152 0 0 0 0 0 0 0 0 0 0 0 0 0 0 0 16384 0 0 0 0 0 0 0 0 0 256 0 0 0 0 0 0 0 131072 0 0 0 0 268435456 0 0 0 0 0 0 0 0 0 0 0 0 0 256 0 0 0 0 0 0 0 0 0 0 0 0 0 0 0 134217728 0 0 0 0 0 0 0 0 0 0 0 0 0 0 0 0 0 0 0 0 0 0 0 0 0 0 0 0 0 0 0 0 0 0 0 0 0 0 4096 0 0 0 8192 138 0 0 0 0 0 0 0 0 0 0 0 0 0 0 0 0 0 0 0 0 0 0 0 0 0 0 0 0 0 0 0 0 0 0 0 0 0 0 0 0 0 0 0 0 0 0 0 0 0 0 0 0 0 0 0 0 0 0 0 268435456 0 0 0 0 0 0 0 0 0 0 0 0 0 0 0 0 0 0 0 0 0 0 0 0 0 0 0 0 0 0 0 0 0 0 0 0 0 0 0 0 0 0 0 0 0 0 0 0 0 0 0 0 0 0 0 0 0 0 0 0 0 0 0 0 0 0 0 0 0 0 0 0 0 0 0 0 0 0 0 0 0 0 0 0 0 0 0 0 0 0 0 0 0 0 0 0 0 0 0 0 0 0 0 0 0 0 0 0 0 0 0 0 0 0 0 0 0 0 0 0 0 0 0 0 0 0 0 0 0 0 0 0 0 0 0 0 0 0 0 0 0 0 0 0 0 0 0 0 0 0 0 0 0 0 0 0 0 0 0 0 0 0 0 0 0 0 0 0 0 0 0 0 0 0 0 0 0 0 0 0 0 0 0 0 0 0 0 0 0 0 65536 1088
is_linear=0
shrinkage=0.05


Tree=28
num_leaves=31
num_cat=4
split_feature=1 2 1 1 3 2 4 2 3 2 1 1 3 2 1 1 2 2 1 0 2 0 1 2 1 2 2 0 0 0
split_gain=1.91722e+08 2.97752e+08 1.80289e+08 1.63873e+08 8.4728e+07 5.59951e+08 5.38665e+07 4.74075e+07 4.05422e+07 3.66226e+07 3.61191e+07 3.57099e+07 4.48045e+07 3.65617e+07 5.65639e+07 3.31321e+07 2.80418e+07 2.83212e+07 2.76106e+07 2.38217e+07 2.3751e+07 2.26113e+07 2.08438e+07 3.29923e+07 4.67583e+07 2.98478e+07 4.89698e+07 2.57546e+07 1.83655e+07 2.41172e+07
threshold=3442.5000000000005 10.500000000000002 7008.5000000000009 47938.30000000001 0 14.500000000000002 1 5.5000000000000009 2 24.500000000000004 606.50000000000011 1162.5000000000002 3 11.500000000000002 2446.5000000000005 10462.000000000002 36.500000000000007 14.500000000000002 15369.000000000002 7.5000000000000009 4.5000000000000009 19.500000000000004 5533.5083333333341 18.500000000000004 9057.0000000000018 21.500000000000004 24.500000000000004 25.500000000000004 27.500000000000004 29.500000000000004
decision_type=2 2 2 2 9 2 9 2 9 2 2 2 9 2 2 2 2 2 2 2 2 2 2 2 2 2 2 2 2 2
left_child=6 2 -2 4 5 -3 7 -1 16 15 -9 20 13 14 19 21 17 -6 -18 -13 -8 -7 -19 24 -24 -25 -27 -28 -29 -30
right_child=1 3 -4 -5 8 9 11 10 -10 -11 -12 12 -14 -15 -16 -17 18 22 -20 -21 -22 -23 23 25 -26 26 27 28 29 -31
leaf_value=51.579705970427575 49.806885431963821 223.38954477037703 200.92216782108432 -96.103393597073023 -12.844479733635399 6.8606613662805449 24.273199493744798 0.10384530061330551 -7.4134881971001354 2.0190067250677881 33.795461930274961 31.454364552573555 -3.2052862866904444 6.1884915632162345 -20.734473411242167 74.694436438019224 -15.112941960493723 7.7571325691517252 25.994022985740948 80.470656060630631 -5.4017327381177367 54.968855667114262 99.10982630180591 -9.7951162576675426 21.201433839603347 67.374848181860784 4.2121097141437316 60.110281532460988 -8.5833212082202621 49.192484687356391
leaf_weight=67 57 34 30 35 84 88 67 389 410 234 99 62 1779 779 35 36 167 333 53 43 8472 33 32 77 48 55 177 43 38 33
leaf_count=67 57 34 30 35 84 88 67 389 410 234 99 62 1779 779 35 36 167 333 53 43 8472 33 32 77 48 55 177 43 38 33
internal_value=-0.348293 13.5785 103.607 9.63213 11.5536 31.0466 -2.82586 12.2393 5.95362 14.586 6.99396 -3.57867 1.43218 10.3257 33.8716 33.185 10.786 14.7122 -5.13709 52.0975 -5.16608 20.3241 17.4931 23.9105 53.2036 18.258 24.5112 16.2069 34.6317 18.5805
internal_weight=13889 2097 87 2010 1975 425 11792 555 1550 391 488 11237 2698 919 140 157 1140 920 220 105 8539 121 836 503 80 423 346 291 114 71
internal_count=13889 2097 87 2010 1975 425 11792 555 1550 391 488 11237 2698 919 140 157 1140 920 220 105 8539 121 836 503 80 423 346 291 114 71
cat_boundaries=0 1 222 223 224
cat_threshold=130 0 0 0 0 0 0 0 0 0 0 0 0 0 0 0 0 0 0 0 0 0 0 0 0 0 0 0 0 0 0 0 0 0 0 0 0 0 0 0 0 0 0 1 0 0 0 0 67108864 0 0 128 0 0 0 0 0 0 0 0 268435456 32768 0 67108864 0 0 524288 0 0 0 0 0 0 0 0 0 0 0 0 0 0 0 0 0 0 0 0 0 0 0 0 16 0 0 0 0 4 0 0 0 0 0 0 0 0 0 0 0 0 0 0 0 0 0 0 0 0 0 0 0 0 0 0 0 0 0 0 0 0 0 0 0 0 0 0 0 0 0 0 0 0 0 0 0 0 0 0 0 0 0 0 0 0 0 0 0 0 0 0 0 0 0 1 0 0 0 0 0 0 0 0 0 0 0 0 0 0 0 0 0 0 0 0 0 0 0 0 0 0 0 0 0 0 0 0 0 0 0 0 0 0 0 0 0 0 0 0 0 0 1048576 0 0 0 8388608 0 0 0 0 0 0 0 536870912 1032 168
is_linear=0
shrinkage=0.05


Tree=29
num_leaves=31
num_cat=3
split_feature=1 3 2 1 3 1 2 1 2 0 0 3 2 0 2 2 0 0 1 0 2 0 2 1 0 2 2 2 2 0
split_gain=8.25042e+08 1.20125e+08 7.41917e+07 8.81454e+07 6.98144e+07 7.68053e+07 8.80064e+07 4.70171e+07 4.36242e+07 5.50765e+07 3.83485e+07 4.02866e+07 3.88599e+07 4.84692e+07 3.6259e+07 3.26041e+07 6.22006e+07 2.79671e+07 1.97076e+07 1.83221e+07 1.8182e+07 4.42693e+07 2.27228e+07 2.17288e+07 2.7687e+07 3.64467e+07 1.64768e+07 5.10806e+07 4.09596e+07 2.38797e+07
threshold=47938.30000000001 0 20.500000000000004 5356.8500000000013 1 226.03333333333333 8.5000000000000018 3871.2166666666667 28.500000000000004 24.500000000000004 6.5000000000000009 2 5.5000000000000009 4.5000000000000009 9.5000000000000018 23.500000000000004 19.500000000000004 13.500000000000002 4246.5000000000009 35.500000000000007 15.500000000000002 11.500000000000002 14.500000000000002 2594.0000000000005 7.5000000000000009 10.500000000000002 14.500000000000002 16.500000000000004 12.500000000000002 16.500000000000004
decision_type=2 9 2 2 9 2 2 2 2 2 2 9 2 2 2 2 2 2 2 2 2 2 2 2 2 2 2 2 2 2
left_child=1 2 3 14 5 -3 10 20 9 15 11 12 -7 -14 -1 16 18 -16 -9 -10 21 23 -23 24 -8 -26 28 -28 -20 -29
right_child=-2 4 -4 -5 -6 6 7 8 19 -11 -12 -13 13 -15 17 -17 -18 -19 26 -21 -22 22 -24 -25 25 -27 27 29 -30 -31
leaf_value=68.11853216747906 215.9101115660234 -6.5695981365172207 -0.12898368605648178 100.40911566536381 -6.9996270584313862 66.488383904548542 -4.1690562134434428 40.607680157647621 -3.077626358061627 70.415881363674998 71.887260341644293 3.5477921874024148 1.066025637554866 68.842565319989191 -4.2395608182360487 -2.1377123641009308 77.29770139611287 38.234379956206759 21.02559757232666 22.491001213921443 -2.3825625188861053 49.066854160710392 10.715972849469127 -28.596806167734083 35.376985132896294 4.4652275997877124 62.708508070777441 -6.7839328824556793 -45.977741065392131 26.110330887635548
leaf_weight=42 43 2595 165 52 4318 72 694 68 518 47 39 204 92 36 81 198 45 73 54 80 3262 75 80 57 117 499 50 129 38 95
leaf_count=42 43 2595 165 52 4318 72 694 68 518 47 39 204 92 36 81 198 45 73 54 80 3262 75 80 57 117 499 50 129 38 95
internal_value=-0.259372 -0.944814 25.262 43.1023 -1.76808 0.707818 3.59309 2.02989 10.3725 18.6183 25.0861 20.4018 35.5449 20.5141 27.466 14.9238 21.9661 16.011 16.0644 0.374763 -0.277166 4.23379 29.4684 1.35306 2.67704 10.3843 11.4062 17.5375 -6.8465 7.2208
internal_weight=13918 13875 413 248 13462 9144 6549 6106 1322 724 443 404 200 128 196 677 479 154 434 598 4784 1522 155 1367 1310 616 366 274 92 224
internal_count=13918 13875 413 248 13462 9144 6549 6106 1322 724 443 404 200 128 196 677 479 154 434 598 4784 1522 155 1367 1310 616 366 274 92 224
cat_boundaries=0 1 2 3
cat_threshold=128 1130 32
is_linear=0
shrinkage=0.05


Tree=30
num_leaves=31
num_cat=4
split_feature=1 1 2 0 2 0 3 2 1 0 2 0 2 3 1 1 3 2 1 2 0 4 1 2 0 1 0 2 0 2
split_gain=2.57544e+08 1.51763e+08 1.03049e+08 8.13785e+07 9.04919e+07 6.08586e+07 4.54469e+07 6.58198e+07 1.33488e+08 8.12342e+07 4.97665e+07 5.0102e+07 4.24655e+07 4.96137e+07 4.16891e+07 3.81161e+07 3.66537e+07 2.96512e+07 2.94009e+07 2.76835e+07 4.39996e+07 2.52154e+07 2.4616e+07 2.83402e+07 1.24126e+08 2.42499e+07 2.26594e+07 1.9107e+07 2.38363e+07 1.90765e+07
threshold=47938.30000000001 5356.8500000000013 18.500000000000004 9.5000000000000018 14.500000000000002 13.500000000000002 0 10.500000000000002 7.5000000000000009 6.5000000000000009 8.5000000000000018 8.5000000000000018 6.5000000000000009 1 1328.5000000000002 470.50000000000006 2 10.500000000000002 11013.000000000002 20.500000000000004 15.500000000000002 3 21642.150000000005 23.500000000000004 18.500000000000004 1811.5000000000002 8.5000000000000018 9.5000000000000018 7.5000000000000009 7.5000000000000009
decision_type=2 2 2 2 2 2 9 2 2 2 2 2 2 9 2 2 9 2 2 2 2 9 2 2 2 2 2 2 2 2
left_child=1 6 3 17 -5 -6 -1 8 -8 12 -11 25 13 -10 -9 -15 22 -3 -7 20 -16 29 23 24 -4 27 -21 28 -12 -14
right_child=-2 2 16 4 5 18 7 14 9 10 11 -13 21 15 19 -17 -18 -19 -20 26 -22 -23 -24 -25 -26 -27 -28 -29 -30 -31
leaf_value=-6.4561460477956771 113.31090567016602 30.046895458823759 -0.53760749612535752 123.51527658827762 -4.9547103021455854 39.840316065874966 112.22053456460276 -4.5521221705203905 -3.2403040423038156 82.523312824528389 4.3278220585414342 63.674692732827708 42.810635968472099 17.354527671184016 4.4442716088723948 65.597550394997668 -2.4739356467251405 -34.737706109249231 104.1993507645347 39.321561501242904 30.238527676731493 -7.8676377345969826 42.025432343080823 7.3873214159977465 106.67809509277345 -29.740484821796418 -2.7350031395059298 0.51482838514523632 60.486455073467518 -0.55930960518973216
leaf_weight=4019 49 37 83 46 45 43 30 4915 177 40 34 56 46 108 766 66 423 32 32 32 210 725 82 478 39 31 1087 77 42 55
leaf_count=4019 49 37 83 46 45 43 30 4915 177 40 34 56 46 108 766 66 423 32 32 32 210 725 82 478 39 31 1087 77 42 55
internal_value=0.0373627 -0.371363 15.6146 45.6114 64.4842 41.0218 -2.08398 -0.00786519 9.54321 7.35354 31.5081 22.6984 1.58548 16.1293 -2.03498 33.9821 9.19974 -0.0651753 68.3099 3.86976 10.0195 -4.60677 16.2317 12.9126 34.3249 9.95055 -1.49828 18.1334 35.7453 17.6855
internal_weight=13905 13856 1340 235 166 120 12516 8497 1487 1457 280 240 1177 351 7010 174 1105 69 75 2095 976 826 682 600 122 184 1119 153 76 101
internal_count=13905 13856 1340 235 166 120 12516 8497 1487 1457 280 240 1177 351 7010 174 1105 69 75 2095 976 826 682 600 122 184 1119 153 76 101
cat_boundaries=0 1 2 3 75
cat_threshold=533 8 138 0 0 0 0 0 0 0 0 0 0 0 0 0 0 0 0 0 0 0 0 0 0 0 1048576 0 0 0 0 0 0 0 0 0 0 0 0 0 0 0 0 0 0 0 0 0 0 0 0 0 0 0 0 0 0 0 0 0 0 0 0 32768 0 0 0 0 524288 0 0 0 0 0 4096
is_linear=0
shrinkage=0.05


Tree=31
num_leaves=31
num_cat=5
split_feature=1 3 1 2 3 1 4 2 1 2 0 0 1 0 0 0 3 1 0 0 2 2 0 2 0 2 0 3 2 0
split_gain=6.53181e+08 1.22225e+08 6.31798e+07 1.13541e+08 5.66243e+07 6.34308e+07 4.61984e+07 4.3572e+07 3.80691e+07 3.75315e+07 4.20064e+07 2.7442e+07 3.46863e+07 2.58564e+07 2.53439e+07 3.4763e+07 2.20733e+07 3.32453e+07 4.21948e+07 5.83322e+07 2.74381e+07 7.54632e+07 1.94412e+07 2.21425e+07 1.65341e+07 1.79585e+07 2.29621e+07 1.79502e+07 1.40183e+07 1.76331e+07
